{"learner":{"attributes":{"scikit_learn":"{\"_estimator_type\": \"classifier\"}"},"feature_names":["year","round","grid","positionOrder","points","laps","milliseconds","fastestLap","rank","fastestLapTime","fastestLapSpeed","driverRef","nationality_x","constructorRef","name","nationality_y","circuitRef","circuitId","location","country","lat","lng","alt","month","day","race_month"],"feature_types":["int","int","int","int","float","float","float","float","int","float","float","int","int","int","int","int","int","int","int","int","float","float","int","int","int","int"],"gradient_booster":{"model":{"gbtree_model_param":{"num_parallel_tree":"1","num_trees":"300"},"iteration_indptr":[0,1,2,3,4,5,6,7,8,9,10,11,12,13,14,15,16,17,18,19,20,21,22,23,24,25,26,27,28,29,30,31,32,33,34,35,36,37,38,39,40,41,42,43,44,45,46,47,48,49,50,51,52,53,54,55,56,57,58,59,60,61,62,63,64,65,66,67,68,69,70,71,72,73,74,75,76,77,78,79,80,81,82,83,84,85,86,87,88,89,90,91,92,93,94,95,96,97,98,99,100,101,102,103,104,105,106,107,108,109,110,111,112,113,114,115,116,117,118,119,120,121,122,123,124,125,126,127,128,129,130,131,132,133,134,135,136,137,138,139,140,141,142,143,144,145,146,147,148,149,150,151,152,153,154,155,156,157,158,159,160,161,162,163,164,165,166,167,168,169,170,171,172,173,174,175,176,177,178,179,180,181,182,183,184,185,186,187,188,189,190,191,192,193,194,195,196,197,198,199,200,201,202,203,204,205,206,207,208,209,210,211,212,213,214,215,216,217,218,219,220,221,222,223,224,225,226,227,228,229,230,231,232,233,234,235,236,237,238,239,240,241,242,243,244,245,246,247,248,249,250,251,252,253,254,255,256,257,258,259,260,261,262,263,264,265,266,267,268,269,270,271,272,273,274,275,276,277,278,279,280,281,282,283,284,285,286,287,288,289,290,291,292,293,294,295,296,297,298,299,300],"tree_info":[0,0,0,0,0,0,0,0,0,0,0,0,0,0,0,0,0,0,0,0,0,0,0,0,0,0,0,0,0,0,0,0,0,0,0,0,0,0,0,0,0,0,0,0,0,0,0,0,0,0,0,0,0,0,0,0,0,0,0,0,0,0,0,0,0,0,0,0,0,0,0,0,0,0,0,0,0,0,0,0,0,0,0,0,0,0,0,0,0,0,0,0,0,0,0,0,0,0,0,0,0,0,0,0,0,0,0,0,0,0,0,0,0,0,0,0,0,0,0,0,0,0,0,0,0,0,0,0,0,0,0,0,0,0,0,0,0,0,0,0,0,0,0,0,0,0,0,0,0,0,0,0,0,0,0,0,0,0,0,0,0,0,0,0,0,0,0,0,0,0,0,0,0,0,0,0,0,0,0,0,0,0,0,0,0,0,0,0,0,0,0,0,0,0,0,0,0,0,0,0,0,0,0,0,0,0,0,0,0,0,0,0,0,0,0,0,0,0,0,0,0,0,0,0,0,0,0,0,0,0,0,0,0,0,0,0,0,0,0,0,0,0,0,0,0,0,0,0,0,0,0,0,0,0,0,0,0,0,0,0,0,0,0,0,0,0,0,0,0,0,0,0,0,0,0,0,0,0,0,0,0,0,0,0,0,0,0,0,0,0,0,0,0,0,0,0,0,0,0,0],"trees":[{"base_weights":[6.452684E-8,-8.461291E-1,2.6368046E0,1.679171E-1,-1.0870653E0,1.8574517E0,3.2356386E0,-1.3516486E0,1.6859576E-1,1.1828743E0,1.6801049E-1,1.6487026E-1,2.2892869E0,6.9001146E-2,-1.3569188E0,1.6797413E-1,-4.786193E-1,-3.9111175E-2,2.578368E0,-1.35955E0,3.7842195E-2,-7.4526757E-1,3.7792775E-1,1.456305E-1,1.0040367E0,-1.3719698E0,-8.3264375E-1,-1.1653618E0,-4.5009273E-1,-6.822649E-1,1.0496976E0,7.308566E-2,-1.1323465E-2,-5.507147E-2,-6.9623746E-2,5.5741247E-2,-5.769504E-2,-6.2285114E-2,-9.1674394E-4,2.2462608E-2,-3.3477906E-2,2.783136E-2,-5.1081296E-2,7.180593E-2,-2.8470337E-2],"categories":[],"categories_nodes":[],"categories_segments":[],"categories_sizes":[],"default_left":[0,0,0,0,0,0,0,0,0,0,0,0,0,0,0,0,0,0,1,0,0,0,0,0,0,0,0,0,0,0,0,0,0,0,0,0,0,0,0,0,0,0,0,0,0],"id":0,"left_children":[1,3,5,-1,7,9,11,13,-1,15,-1,-1,17,-1,19,-1,21,-1,23,25,-1,27,29,-1,31,33,35,37,39,41,43,-1,-1,-1,-1,-1,-1,-1,-1,-1,-1,-1,-1,-1,-1],"loss_changes":[3.6953416E3,1.2738921E3,1.8177954E2,0E0,1.4046187E3,1.7564075E2,5.6730957E0,1.8010498E1,0E0,4.494367E2,0E0,0E0,1.7226372E1,0E0,7.2541504E0,0E0,1.6520924E1,0E0,5.4364014E0,6.1757812E0,0E0,6.2407494E0,1.3210421E1,0E0,2.7575274E0,4.5183105E0,1.8989458E1,1.9939728E0,6.946912E0,3.6842434E0,7.78292E0,0E0,0E0,0E0,0E0,0E0,0E0,0E0,0E0,0E0,0E0,0E0,0E0,0E0,0E0],"parents":[2147483647,0,0,1,1,2,2,4,4,5,5,6,6,7,7,9,9,12,12,14,14,16,16,18,18,19,19,21,21,22,22,24,24,25,25,26,26,27,27,28,28,29,29,30,30],"right_children":[2,4,6,-1,8,10,12,14,-1,16,-1,-1,18,-1,20,-1,22,-1,24,26,-1,28,30,-1,32,34,36,38,40,42,44,-1,-1,-1,-1,-1,-1,-1,-1,-1,-1,-1,-1,-1,-1],"split_conditions":[2E0,5.788651E6,4.5E0,1.679171E-1,5.800023E6,5.800023E6,7E0,3E0,1.6859576E-1,5.788651E6,1.6801049E-1,1.6487026E-1,2.012E3,6.9001146E-2,1.99E2,1.6797413E-1,1.32514E1,-3.9111175E-2,6.1E1,2.22867E2,3.7842195E-2,1.971E3,8.6E1,1.456305E-1,2.2E1,8E0,1.2E1,1.1E1,4E0,6E0,2.7E1,7.308566E-2,-1.1323465E-2,-5.507147E-2,-6.9623746E-2,5.5741247E-2,-5.769504E-2,-6.2285114E-2,-9.1674394E-4,2.2462608E-2,-3.3477906E-2,2.783136E-2,-5.1081296E-2,7.180593E-2,-2.8470337E-2],"split_indices":[4,6,4,0,6,6,3,3,0,6,0,0,0,0,5,0,21,0,7,10,0,0,13,0,17,3,3,1,3,2,12,0,0,0,0,0,0,0,0,0,0,0,0,0,0],"split_type":[0,0,0,0,0,0,0,0,0,0,0,0,0,0,0,0,0,0,0,0,0,0,0,0,0,0,0,0,0,0,0,0,0,0,0,0,0,0,0,0,0,0,0,0,0],"sum_hessian":[1.6543038E3,1.2529283E3,4.0137546E2,6.720609E1,1.1857223E3,1.7618335E2,2.2519211E2,1.1199636E3,6.5758575E1,1.22832054E2,5.3351295E1,2.0906264E2,1.6129461E1,1.6543038E0,1.1183093E3,5.2730934E1,7.010112E1,1.2407279E0,1.4888734E1,1.1172754E3,1.0339398E0,5.3558086E1,1.6543037E1,1.1580127E1,3.3086076E0,1.0899794E3,2.7296013E1,2.0885586E1,3.26725E1,6.410427E0,1.013261E1,2.2746677E0,1.0339398E0,8.064731E1,1.0093321E3,3.5153956E0,2.3780617E1,1.943807E1,1.4475158E0,6.203639E0,2.646886E1,1.2407279E0,5.169699E0,8.271519E0,1.8610917E0],"tree_param":{"num_deleted":"0","num_feature":"26","num_nodes":"45","size_leaf_vector":"1"}},{"base_weights":[-1.6651539E-3,-8.2029235E-1,2.3803682E0,1.4964436E-1,-1.0585665E0,1.4339118E0,2.7421968E0,-1.322929E0,1.5021914E-1,7.9585505E-1,1.4803235E-1,2.1643474E0,2.8879886E0,6.5671146E-2,-1.3282614E0,1.4800787E-1,-6.6023904E-1,1.6802273E0,1.4610891E-1,1.4817736E-1,2.3195345E0,-1.3309264E0,3.658357E-2,-8.4090865E-1,5.662543E-1,1.45995E-1,9.225593E-2,1.105066E0,2.65126E0,-1.3434447E0,-8.0597216E-1,1.8211217E-1,-9.692509E-1,1.0626544E0,-4.1958652E-2,7.496667E-1,-3.3750758E-1,2.5204903E-1,1.1221447E-1,1.4222942E-1,1.2769861E0,-6.782728E-2,-4.6475243E-2,5.2613344E-2,-5.6276243E-2,-4.288006E-2,3.8517043E-2,-5.2142914E-2,3.119694E-4,-2.4179002E-2,8.902161E-2,-3.8806375E-2,5.697273E-2,-5.2532177E-2,-6.898624E-4,9.4763756E-2,-3.496321E-2,3.5673499E-3,8.399623E-2],"categories":[],"categories_nodes":[],"categories_segments":[],"categories_sizes":[],"default_left":[0,0,0,0,0,0,0,0,0,0,0,0,0,0,0,0,0,0,0,0,0,0,0,0,0,0,0,0,0,0,0,0,0,0,0,0,0,0,0,0,0,0,0,0,0,0,0,0,0,0,0,0,0,0,0,0,0,0,0],"id":1,"left_children":[1,3,5,-1,7,9,11,13,-1,15,-1,17,19,-1,21,-1,23,25,-1,-1,27,29,-1,31,33,-1,35,37,39,41,43,45,47,49,-1,51,53,55,-1,-1,57,-1,-1,-1,-1,-1,-1,-1,-1,-1,-1,-1,-1,-1,-1,-1,-1,-1,-1],"loss_changes":[3.224435E3,1.1212959E3,1.4090186E2,0E0,1.2488387E3,1.1362918E2,1.9432861E1,1.7052246E1,0E0,2.7089212E2,0E0,1.908841E1,3.4536133E0,0E0,6.9422607E0,0E0,1.1961981E1,8.293548E1,0E0,0E0,1.0289398E1,6.0546875E0,0E0,6.1611443E0,5.9515953E0,0E0,5.7801404E0,7.9416704E0,3.0251007E0,4.4836426E0,1.7690134E1,4.2829227E0,2.9258995E0,7.2990913E0,0E0,5.668249E0,2.875546E0,1.0911851E1,0E0,0E0,2.26297E0,0E0,0E0,0E0,0E0,0E0,0E0,0E0,0E0,0E0,0E0,0E0,0E0,0E0,0E0,0E0,0E0,0E0,0E0],"parents":[2147483647,0,0,1,1,2,2,4,4,5,5,6,6,7,7,9,9,11,11,12,12,14,14,16,16,17,17,20,20,21,21,23,23,24,24,26,26,27,27,28,28,29,29,30,30,31,31,32,32,33,33,35,35,36,36,37,37,40,40],"right_children":[2,4,6,-1,8,10,12,14,-1,16,-1,18,20,-1,22,-1,24,26,-1,-1,28,30,-1,32,34,-1,36,38,40,42,44,46,48,50,-1,52,54,56,-1,-1,58,-1,-1,-1,-1,-1,-1,-1,-1,-1,-1,-1,-1,-1,-1,-1,-1,-1,-1],"split_conditions":[2E0,5.788651E6,4E0,1.4964436E-1,5.800023E6,5.800023E6,4.5E0,3E0,1.5021914E-1,5.788651E6,1.4803235E-1,5.800023E6,6E0,6.5671146E-2,1.99E2,1.4800787E-1,2.9405E1,5.788651E6,1.4610891E-1,1.4817736E-1,8.1212E1,2.22867E2,3.658357E-2,1.9E1,1.6E1,1.45995E-1,5.9E1,5.800023E6,1.34E2,1E0,1.2E1,1.974E3,2.9E1,6.3E1,-4.1958652E-2,5.2E1,2.5E1,5.60842E6,1.1221447E-1,1.4222942E-1,8.8538E1,-6.782728E-2,-4.6475243E-2,5.2613344E-2,-5.6276243E-2,-4.288006E-2,3.8517043E-2,-5.2142914E-2,3.119694E-4,-2.4179002E-2,8.902161E-2,-3.8806375E-2,5.697273E-2,-5.2532177E-2,-6.898624E-4,9.4763756E-2,-3.496321E-2,3.5673499E-3,8.399623E-2],"split_indices":[4,6,4,0,6,6,4,3,0,6,0,6,3,0,5,0,21,6,0,0,9,10,0,18,2,0,5,6,13,4,3,0,24,13,0,5,18,6,0,0,9,0,0,0,0,0,0,0,0,0,0,0,0,0,0,0,0,0,0],"split_type":[0,0,0,0,0,0,0,0,0,0,0,0,0,0,0,0,0,0,0,0,0,0,0,0,0,0,0,0,0,0,0,0,0,0,0,0,0,0,0,0,0,0,0,0,0,0,0,0,0,0,0,0,0,0,0,0,0,0,0],"sum_hessian":[1.6515575E3,1.2296295E3,4.2192795E2,7.163707E1,1.1579926E3,1.1806398E2,3.0386395E2,1.0878821E3,7.011048E1,8.433837E1,3.3725613E1,6.441179E1,2.3945216E2,1.7007573E0,1.0861813E3,3.350477E1,5.0833603E1,4.126676E1,2.314503E1,2.0763959E2,3.1812588E1,1.0851312E3,1.0500227E0,4.4580948E1,6.2526536E0,2.2703888E1,1.8562876E1,7.754419E0,2.4058168E1,1.0583346E3,2.6796623E1,4.9227295E0,3.965822E1,4.8008685E0,1.4517851E0,7.0437126E0,1.1519163E1,5.1325574E0,2.6218612E0,2.0153196E1,3.904973E0,1.0236597E3,3.467488E1,3.595486E0,2.3201138E1,1.613275E0,3.3094544E0,3.6811485E1,2.846735E0,1.6255009E0,3.1753674E0,1.2315915E0,5.812121E0,2.8952591E0,8.623903E0,1.5180761E0,3.6144814E0,1.2730184E0,2.6319547E0],"tree_param":{"num_deleted":"0","num_feature":"26","num_nodes":"59","size_leaf_vector":"1"}},{"base_weights":[-2.519152E-3,-7.969893E-1,2.1807868E0,1.3571991E-1,-1.0326033E0,1.3351061E0,2.4969938E0,-1.2964112E0,1.362296E-1,7.4842817E-1,1.3451946E-1,1.9911945E0,2.6230516E0,6.260068E-2,-1.3018095E0,1.3450027E-1,-6.3768715E-1,1.556243E0,1.3300757E-1,1.3329737E-1,1.9352785E0,-9.827453E-1,-1.3261795E0,-9.070244E-1,1.8079211E-1,1.329178E-1,8.53452E-2,-3.9119363E-2,2.176927E0,-1.1501724E0,4.2178527E-1,-1.3373685E0,-8.76835E-1,-1.0420198E0,-1.0902669E-2,-7.412021E-1,6.822746E-1,5.0049245E-1,-5.27616E-1,2.6903113E-2,2.325293E0,-5.876506E-2,1.4460111E-2,9.1779865E-2,-1.4960009E-2,-6.706488E-2,-4.4022795E-2,1.5893798E-2,-6.0415786E-2,-1.4497491E-2,-5.9402328E-2,-4.2940486E-2,2.4483507E-2,-5.2138217E-2,7.1098185E-3,-4.1268E-2,5.3138047E-2,-1.463985E-2,5.2137323E-2,1.519335E-2,-4.8912432E-2,3.4628343E-2,1.22691035E-1],"categories":[],"categories_nodes":[],"categories_segments":[],"categories_sizes":[],"default_left":[0,0,0,0,0,0,0,0,0,0,0,0,0,0,0,0,0,0,0,0,0,0,0,0,0,0,0,0,0,0,0,0,0,0,0,0,0,0,0,0,0,0,0,0,0,0,0,0,0,0,0,0,0,0,0,0,0,0,0,0,0,0,0],"id":2,"left_children":[1,3,5,-1,7,9,11,13,-1,15,-1,17,19,-1,21,-1,23,25,-1,-1,27,29,31,33,35,-1,37,-1,39,41,43,45,47,49,51,53,55,57,59,-1,61,-1,-1,-1,-1,-1,-1,-1,-1,-1,-1,-1,-1,-1,-1,-1,-1,-1,-1,-1,-1,-1,-1],"loss_changes":[2.8506152E3,9.996943E2,1.1391553E2,0E0,1.1234684E3,9.457405E1,1.5051636E1,1.6163818E1,0E0,2.3360155E2,0E0,1.5526611E1,2.2575684E0,0E0,6.897583E0,0E0,1.1424648E1,7.007845E1,0E0,0E0,1.3791763E1,1.8992683E1,3.739502E0,4.6581554E0,6.7389193E0,0E0,5.2541265E0,0E0,2.9234695E0,2.893097E0,9.839712E0,5.2685547E-1,1.0934641E1,3.3385048E0,2.9943879E0,1.5411859E0,6.18474E0,5.55527E0,3.4466078E0,0E0,1.5411682E0,0E0,0E0,0E0,0E0,0E0,0E0,0E0,0E0,0E0,0E0,0E0,0E0,0E0,0E0,0E0,0E0,0E0,0E0,0E0,0E0,0E0,0E0],"parents":[2147483647,0,0,1,1,2,2,4,4,5,5,6,6,7,7,9,9,11,11,12,12,14,14,16,16,17,17,20,20,21,21,22,22,23,23,24,24,26,26,28,28,29,29,30,30,31,31,32,32,33,33,34,34,35,35,36,36,37,37,38,38,40,40],"right_children":[2,4,6,-1,8,10,12,14,-1,16,-1,18,20,-1,22,-1,24,26,-1,-1,28,30,32,34,36,-1,38,-1,40,42,44,46,48,50,52,54,56,58,60,-1,62,-1,-1,-1,-1,-1,-1,-1,-1,-1,-1,-1,-1,-1,-1,-1,-1,-1,-1,-1,-1,-1,-1],"split_conditions":[2E0,5.788651E6,4E0,1.3571991E-1,5.800023E6,5.800023E6,4.5E0,3E0,1.362296E-1,5.788651E6,1.3451946E-1,5.800023E6,7E0,6.260068E-2,8E0,1.3450027E-1,1.997E3,5.788651E6,1.3300757E-1,1.3329737E-1,2.012E3,1.997E3,2.22867E2,1.59E2,8.4849E1,1.329178E-1,1.9E1,-3.9119363E-2,7.5739E1,1.02E2,5.5E1,5E-1,1.3E1,5E0,9E0,2.021E3,7E0,2.5E1,3.37651E1,2.6903113E-2,-9.67587E1,-5.876506E-2,1.4460111E-2,9.1779865E-2,-1.4960009E-2,-6.706488E-2,-4.4022795E-2,1.5893798E-2,-6.0415786E-2,-1.4497491E-2,-5.9402328E-2,-4.2940486E-2,2.4483507E-2,-5.2138217E-2,7.1098185E-3,-4.1268E-2,5.3138047E-2,-1.463985E-2,5.2137323E-2,1.519335E-2,-4.8912432E-2,3.4628343E-2,1.22691035E-1],"split_indices":[4,6,4,0,6,6,4,3,0,6,0,6,3,0,3,0,0,6,0,0,0,0,10,13,9,0,24,0,9,5,5,4,3,2,14,0,24,14,20,0,21,0,0,0,0,0,0,0,0,0,0,0,0,0,0,0,0,0,0,0,0,0,0],"split_type":[0,0,0,0,0,0,0,0,0,0,0,0,0,0,0,0,0,0,0,0,0,0,0,0,0,0,0,0,0,0,0,0,0,0,0,0,0,0,0,0,0,0,0,0,0,0,0,0,0,0,0,0,0,0,0,0,0,0,0,0,0,0,0],"sum_hessian":[1.6414099E3,1.2039476E3,4.3746234E2,7.504349E1,1.1289042E3,1.20476326E2,3.1698602E2,1.0554515E3,7.345258E1,8.5163E1,3.5313324E1,6.659072E1,2.503953E2,1.7429017E0,1.0537086E3,3.5081924E1,5.0081078E1,4.2369022E1,2.42217E1,2.329878E2,1.7407495E1,7.770321E1,9.7600543E2,3.7599888E1,1.2481191E1,2.3759342E1,1.8609678E1,1.2387173E0,1.6168777E1,6.958896E1,8.114251E0,9.503642E2,2.5641201E1,3.253576E1,5.06413E0,4.2286453E0,8.252545E0,1.1204537E1,7.4051414E0,1.7263167E0,1.4442461E1,6.8575226E1,1.0137359E0,2.2183113E0,5.89594E0,9.403425E2,1.0021717E1,5.5780473E0,2.0063154E1,5.7756243E0,2.6760136E1,1.6142093E0,3.4499207E0,3.0180016E0,1.210644E0,1.4274021E0,6.825143E0,4.736021E0,6.4685163E0,2.717199E0,4.687942E0,1.5201389E0,1.2922322E1],"tree_param":{"num_deleted":"0","num_feature":"26","num_nodes":"63","size_leaf_vector":"1"}},{"base_weights":[-3.2885494E-3,-8.4892124E-1,1.8492368E0,-1.0554527E0,1.2492128E-1,1.0322798E0,2.299911E0,1.2425723E-1,-1.2851162E0,1.2468058E-1,4.5957145E-1,1.849462E0,2.4111087E0,5.9761323E-2,-1.2907975E0,-7.2702956E-1,1.2454367E-1,1.4528667E0,1.2257981E-1,1.2342912E-1,1.9707236E0,-1.2936891E0,3.650894E-2,-9.637697E-1,-1.8079008E-1,1.22506075E-1,8.085862E-2,2.3110232E0,1.1131977E0,-1.3064167E0,-7.7127886E-1,-1.0766127E0,-1.9670609E-1,6.402686E-1,-5.066851E-1,6.881503E-1,-3.2572067E-1,1.0263677E0,1.199486E-1,1.011282E-1,1.0962113E-1,-5.3612288E-2,-6.592061E-2,6.2646165E-2,-5.373202E-2,-1.8656192E-2,-6.0352843E-2,3.0808095E-2,-3.8673237E-2,-1.1909E-2,9.3367614E-2,-4.413725E-2,1.0475809E-2,-3.8040116E-2,5.2391987E-2,1.4746106E-2,-3.231857E-2,6.955757E-2,7.872624E-3,8.842232E-2,-4.078974E-2],"categories":[],"categories_nodes":[],"categories_segments":[],"categories_sizes":[],"default_left":[0,0,0,0,0,0,0,0,0,0,0,0,0,0,0,0,0,0,0,0,0,0,0,0,0,0,0,0,0,0,0,0,0,0,0,0,0,0,0,0,0,0,0,0,0,0,0,0,0,0,0,0,0,0,0,0,0,0,0,0,0],"id":3,"left_children":[1,3,5,7,-1,9,11,-1,13,-1,15,17,19,-1,21,23,-1,25,-1,-1,27,29,-1,31,33,-1,35,37,39,41,43,45,47,49,51,53,55,57,-1,59,-1,-1,-1,-1,-1,-1,-1,-1,-1,-1,-1,-1,-1,-1,-1,-1,-1,-1,-1,-1,-1],"loss_changes":[2.5495278E3,7.7513354E2,1.8542383E2,8.59573E2,0E0,1.5214055E2,1.1965332E1,0E0,1.5488892E1,0E0,3.2193457E2,1.2966873E1,1.708252E0,0E0,6.7177734E0,1.0767502E1,0E0,6.025666E1,0E0,0E0,7.6229706E0,5.553955E0,0E0,4.8776436E0,7.499273E0,0E0,5.071499E0,2.5878906E-1,1.2727222E1,1.2883301E0,1.725811E1,4.232792E0,4.585419E0,9.133617E0,5.505197E0,5.0676813E0,2.6658916E0,8.2405186E-1,0E0,1.2398616E1,0E0,0E0,0E0,0E0,0E0,0E0,0E0,0E0,0E0,0E0,0E0,0E0,0E0,0E0,0E0,0E0,0E0,0E0,0E0,0E0,0E0],"parents":[2147483647,0,0,1,1,2,2,3,3,5,5,6,6,8,8,10,10,11,11,12,12,14,14,15,15,17,17,20,20,21,21,23,23,24,24,26,26,27,27,28,28,29,29,30,30,31,31,32,32,33,33,34,34,35,35,36,36,37,37,39,39],"right_children":[2,4,6,8,-1,10,12,-1,14,-1,16,18,20,-1,22,24,-1,26,-1,-1,28,30,-1,32,34,-1,36,38,40,42,44,46,48,50,52,54,56,58,-1,60,-1,-1,-1,-1,-1,-1,-1,-1,-1,-1,-1,-1,-1,-1,-1,-1,-1,-1,-1,-1,-1],"split_conditions":[5E-1,5.800023E6,4E0,5.788651E6,1.2492128E-1,5.788651E6,4.5E0,1.2425723E-1,3E0,1.2468058E-1,5.800023E6,5.800023E6,6E0,5.9761323E-2,1.99E2,1.996E3,1.2454367E-1,5.788651E6,1.2257981E-1,1.2342912E-1,6.5E1,2.22867E2,3.650894E-2,1.59E2,7E0,1.22506075E-1,5.9E1,2.012E3,5.800023E6,8E0,1.2E1,5E0,1.982E3,1.9E1,2.78736E1,5.2E1,1.1E1,5E0,1.199486E-1,5.753406E6,1.0962113E-1,-5.3612288E-2,-6.592061E-2,6.2646165E-2,-5.373202E-2,-1.8656192E-2,-6.0352843E-2,3.0808095E-2,-3.8673237E-2,-1.1909E-2,9.3367614E-2,-4.413725E-2,1.0475809E-2,-3.8040116E-2,5.2391987E-2,1.4746106E-2,-3.231857E-2,6.955757E-2,7.872624E-3,8.842232E-2,-4.078974E-2],"split_indices":[4,6,4,6,0,6,4,0,3,0,6,6,3,0,5,0,0,6,0,0,5,10,0,13,3,0,5,0,6,3,3,2,0,17,21,5,19,15,0,6,0,0,0,0,0,0,0,0,0,0,0,0,0,0,0,0,0,0,0,0,0],"split_type":[0,0,0,0,0,0,0,0,0,0,0,0,0,0,0,0,0,0,0,0,0,0,0,0,0,0,0,0,0,0,0,0,0,0,0,0,0,0,0,0,0,0,0,0,0,0,0,0,0,0,0,0,0,0,0,0,0,0,0,0,0],"sum_hessian":[1.625471E3,1.1164022E3,5.0906866E2,1.0521681E3,6.423415E1,1.8215631E2,3.2691235E2,6.349403E1,9.886741E2,5.0343914E1,1.318124E2,6.8214714E1,2.5869766E2,1.7809304E0,9.868932E2,8.3611916E1,4.8200478E1,4.3184284E1,2.5030434E1,2.2475922E2,3.393843E1,9.8584247E2,1.0506946E0,5.7797928E1,2.581399E1,2.4552393E1,1.8631891E1,2.3083147E1,1.0855282E1,9.609304E2,2.4912024E1,5.0033875E1,7.764055E0,7.0606833E0,1.8753305E1,7.1939826E0,1.1437908E1,2.290863E0,2.0792284E1,6.1663456E0,4.6889367E0,5.1229923E1,9.097005E2,2.838929E0,2.2073095E1,8.430165E0,4.160371E1,3.194083E0,4.569972E0,4.584566E0,2.4761167E0,1.2144163E1,6.6091423E0,1.2089106E0,5.9850717E0,3.9236453E0,7.5142627E0,1.1901848E0,1.1006782E0,1.8583949E0,4.307951E0],"tree_param":{"num_deleted":"0","num_feature":"26","num_nodes":"61","size_leaf_vector":"1"}},{"base_weights":[-3.618064E-3,-8.287939E-1,1.7307574E0,-1.0334468E0,1.1607291E-1,9.764005E-1,2.1399446E0,1.1545688E-1,-1.2625173E0,1.15863346E-1,4.374812E-1,1.7303799E0,2.240424E0,8.531716E-2,-1.2740645E0,-7.0393026E-1,1.15748726E-1,1.3640409E0,1.1408391E-1,1.15234174E-1,1.8879907E0,-7.200116E-1,8.5412435E-2,-1.2850912E0,-8.1369674E-1,-9.3868923E-1,-1.7133251E-1,1.140212E-1,7.6323286E-2,1.1161965E-1,1.1675633E0,1.2084706E-2,-9.371948E-1,-1.2870944E0,1.2318046E-3,4.9109572E-1,-1.1619561E0,-1.051356E0,-1.8880731E-1,5.351602E-1,-5.312214E-1,-7.4612516E-1,3.5958374E-1,8.770554E-2,1.063896E-1,-1.0788793E-2,-5.2298214E-2,-5.393647E-2,-6.481783E-2,-1.3413477E-2,6.3783504E-2,-1.1424048E-2,-6.025485E-2,-5.520151E-2,1.8293396E-2,2.9321456E-2,-3.7642375E-2,7.903711E-2,-1.131626E-2,-3.4843564E-2,4.623787E-2,1.5052213E-2,-5.2833285E-2,3.8310178E-2,-1.8488018E-2,7.474971E-2,-2.1953877E-2],"categories":[],"categories_nodes":[],"categories_segments":[],"categories_sizes":[],"default_left":[0,0,0,0,0,0,0,0,0,0,0,0,0,0,0,0,0,0,0,0,0,0,0,0,0,0,0,0,0,0,0,0,0,0,0,0,0,0,0,0,0,0,0,0,0,0,0,0,0,0,0,0,0,0,0,0,0,0,0,0,0,0,0,0,0,0,0],"id":4,"left_children":[1,3,5,7,-1,9,11,-1,13,-1,15,17,19,21,23,25,-1,27,-1,-1,29,31,-1,33,35,37,39,-1,41,-1,43,-1,45,47,-1,49,51,53,55,57,59,61,63,65,-1,-1,-1,-1,-1,-1,-1,-1,-1,-1,-1,-1,-1,-1,-1,-1,-1,-1,-1,-1,-1,-1,-1],"loss_changes":[2.29904E3,7.041747E2,1.5777051E2,7.8606665E2,0E0,1.3192514E2,9.90625E0,0E0,1.5016602E1,0E0,2.854878E2,1.1100433E1,1.6628418E0,1.3089188E1,3.7756348E0,1.0234913E1,0E0,5.2650925E1,0E0,0E0,8.926605E0,1.6400988E0,0E0,2.4606934E0,1.19049015E1,4.658188E0,7.062793E0,0E0,4.845255E0,0E0,1.7576136E1,0E0,2.2362185E-1,3.857422E-1,0E0,3.8917708E0,5.294819E-1,4.1183586E0,4.2577543E0,7.9180193E0,5.0253687E0,2.0605338E0,4.8172584E0,7.406996E0,0E0,0E0,0E0,0E0,0E0,0E0,0E0,0E0,0E0,0E0,0E0,0E0,0E0,0E0,0E0,0E0,0E0,0E0,0E0,0E0,0E0,0E0,0E0],"parents":[2147483647,0,0,1,1,2,2,3,3,5,5,6,6,8,8,10,10,11,11,12,12,13,13,14,14,15,15,17,17,20,20,21,21,23,23,24,24,25,25,26,26,28,28,30,30,32,32,33,33,35,35,36,36,37,37,38,38,39,39,40,40,41,41,42,42,43,43],"right_children":[2,4,6,8,-1,10,12,-1,14,-1,16,18,20,22,24,26,-1,28,-1,-1,30,32,-1,34,36,38,40,-1,42,-1,44,-1,46,48,-1,50,52,54,56,58,60,62,64,66,-1,-1,-1,-1,-1,-1,-1,-1,-1,-1,-1,-1,-1,-1,-1,-1,-1,-1,-1,-1,-1,-1,-1],"split_conditions":[5E-1,5.800023E6,4E0,5.788651E6,1.1607291E-1,5.788651E6,4.5E0,1.1545688E-1,6E0,1.15863346E-1,5.800023E6,5.800023E6,8E0,1.996E3,2.22867E2,1.996E3,1.15748726E-1,5.788651E6,1.1408391E-1,1.15234174E-1,6.5E1,1.957E3,8.5412435E-2,1.97E2,1.3E1,1.59E2,9E0,1.140212E-1,1.971E3,1.1161965E-1,5.800023E6,1.2084706E-2,4E0,8E0,1.2318046E-3,8.5455E1,4E0,6E1,1.982E3,2.003E3,1.02308E2,2E0,1.9E1,5.753406E6,1.063896E-1,-1.0788793E-2,-5.2298214E-2,-5.393647E-2,-6.481783E-2,-1.3413477E-2,6.3783504E-2,-1.1424048E-2,-6.025485E-2,-5.520151E-2,1.8293396E-2,2.9321456E-2,-3.7642375E-2,7.903711E-2,-1.131626E-2,-3.4843564E-2,4.623787E-2,1.5052213E-2,-5.2833285E-2,3.8310178E-2,-1.8488018E-2,7.474971E-2,-2.1953877E-2],"split_indices":[4,6,4,6,0,6,4,0,3,0,6,6,2,0,10,0,0,6,0,0,5,0,0,5,3,13,2,0,0,0,6,0,2,3,0,9,2,17,0,0,9,12,24,6,0,0,0,0,0,0,0,0,0,0,0,0,0,0,0,0,0,0,0,0,0,0,0],"split_type":[0,0,0,0,0,0,0,0,0,0,0,0,0,0,0,0,0,0,0,0,0,0,0,0,0,0,0,0,0,0,0,0,0,0,0,0,0,0,0,0,0,0,0,0,0,0,0,0,0,0,0,0,0,0,0,0,0,0,0,0,0,0,0,0,0,0,0],"sum_hessian":[1.6044098E3,1.0875166E3,5.168932E2,1.02180786E3,6.5708755E1,1.8296828E2,3.3392487E2,6.495198E1,9.568559E2,5.1509487E1,1.314588E2,6.937325E1,2.6455164E2,8.073671E0,9.4878217E2,8.214455E1,4.9314247E1,4.3765316E1,2.5607937E1,2.1906926E2,4.548237E1,5.767889E0,2.3057826E0,9.248392E2,2.394304E1,5.6484695E1,2.5659853E1,2.5118935E1,1.8646383E1,2.9351904E1,1.6130465E1,1.0418096E0,4.7260795E0,9.234441E2,1.3950557E0,4.9578304E0,1.898521E1,4.875711E1,7.7275844E0,8.495481E0,1.7164371E1,4.358216E0,1.4288167E1,8.105965E0,8.0245E0,1.0101302E0,3.7159495E0,4.430111E1,8.79143E2,2.8537977E0,2.1040328E0,1.1167771E0,1.7868433E1,4.7222958E1,1.5341558E0,3.237777E0,4.489807E0,3.1265728E0,5.368908E0,1.587914E1,1.2852316E0,1.0038218E0,3.354394E0,9.141251E0,5.146916E0,1.7072139E0,6.398751E0],"tree_param":{"num_deleted":"0","num_feature":"26","num_nodes":"67","size_leaf_vector":"1"}},{"base_weights":[-3.8595868E-3,-8.1040615E-1,1.6303489E0,-1.0131894E0,1.08772956E-1,9.283643E-1,2.0057757E0,1.0818823E-1,-1.241521E0,1.08583234E-1,4.1847616E-1,1.6284012E0,2.0979564E0,8.4447384E-2,-1.2532345E0,-6.8106765E-1,1.0848465E-1,1.286216E0,1.0703049E-1,1.0655963E-1,1.5634882E0,-7.0217407E-1,8.061144E-2,-1.264449E0,-7.910687E-1,-9.1420084E-1,-1.6113846E-1,1.0697553E-1,7.127058E-2,-3.9874177E-2,1.7693586E0,1.1747619E-2,-9.184164E-1,-1.2664887E0,1.1955415E-3,4.7195488E-1,-1.1398708E0,-1.0267091E0,-1.8135285E-1,5.955963E-1,-4.7244748E-1,-7.265092E-1,3.4065104E-1,2.1710277E-2,1.888498E0,-1.0542194E-2,-5.1342964E-2,-5.274876E-2,-6.37983E-2,-1.2972382E-2,6.0603973E-2,-1.1157597E-2,-5.916238E-2,-1.6040163E-2,-5.8072086E-2,2.7924253E-2,-3.664494E-2,-1.1346216E-2,8.469368E-2,-4.2155806E-2,1.0505167E-2,1.4625713E-2,-5.179896E-2,2.947534E-2,-3.4928765E-2,1.02051355E-1,3.839509E-2],"categories":[],"categories_nodes":[],"categories_segments":[],"categories_sizes":[],"default_left":[0,0,0,0,0,0,0,0,0,0,0,0,0,0,0,0,0,0,0,0,0,0,0,0,0,0,0,0,0,0,0,0,0,0,0,0,0,0,0,0,0,0,0,0,0,0,0,0,0,0,0,0,0,0,0,0,0,0,0,0,0,0,0,0,0,0,0],"id":5,"left_children":[1,3,5,7,-1,9,11,-1,13,-1,15,17,19,21,23,25,-1,27,-1,-1,29,31,-1,33,35,37,39,-1,41,-1,43,-1,45,47,-1,49,51,53,55,57,59,61,63,-1,65,-1,-1,-1,-1,-1,-1,-1,-1,-1,-1,-1,-1,-1,-1,-1,-1,-1,-1,-1,-1,-1,-1],"loss_changes":[2.084347E3,6.432918E2,1.3585608E2,7.223906E2,0E0,1.1570532E2,8.397827E0,0E0,1.449231E1,0E0,2.5505153E2,9.715286E0,1.4547119E0,1.2005555E1,3.7589111E0,9.75066E0,0E0,4.665825E1,0E0,0E0,1.09038315E1,1.567277E0,0E0,2.3815918E0,1.1297711E1,4.4446297E0,6.5227146E0,0E0,4.4732714E0,0E0,2.0869293E0,0E0,2.149167E-1,4.4470215E-1,0E0,3.5583987E0,5.0862503E-1,4.237774E0,3.9550667E0,7.759923E0,5.0673895E0,1.9690037E0,4.3895054E0,0E0,1.2493286E0,0E0,0E0,0E0,0E0,0E0,0E0,0E0,0E0,0E0,0E0,0E0,0E0,0E0,0E0,0E0,0E0,0E0,0E0,0E0,0E0,0E0,0E0],"parents":[2147483647,0,0,1,1,2,2,3,3,5,5,6,6,8,8,10,10,11,11,12,12,13,13,14,14,15,15,17,17,20,20,21,21,23,23,24,24,25,25,26,26,28,28,30,30,32,32,33,33,35,35,36,36,37,37,38,38,39,39,40,40,41,41,42,42,44,44],"right_children":[2,4,6,8,-1,10,12,-1,14,-1,16,18,20,22,24,26,-1,28,-1,-1,30,32,-1,34,36,38,40,-1,42,-1,44,-1,46,48,-1,50,52,54,56,58,60,62,64,-1,66,-1,-1,-1,-1,-1,-1,-1,-1,-1,-1,-1,-1,-1,-1,-1,-1,-1,-1,-1,-1,-1,-1],"split_conditions":[5E-1,5.800023E6,4E0,5.788651E6,1.08772956E-1,5.788651E6,4.5E0,1.0818823E-1,6E0,1.08583234E-1,5.800023E6,5.800023E6,7E0,1.996E3,2.22867E2,1.996E3,1.0848465E-1,5.788651E6,1.0703049E-1,1.0655963E-1,2.012E3,1.957E3,8.061144E-2,1.97E2,1.3E1,1.59E2,7E0,1.0697553E-1,1.971E3,-3.9874177E-2,7.5739E1,1.1747619E-2,4E0,8E0,1.1955415E-3,8.5455E1,4E0,5E0,1.982E3,1.9E1,2.78736E1,2E0,2.6E1,2.1710277E-2,1.34E2,-1.0542194E-2,-5.1342964E-2,-5.274876E-2,-6.37983E-2,-1.2972382E-2,6.0603973E-2,-1.1157597E-2,-5.916238E-2,-1.6040163E-2,-5.8072086E-2,2.7924253E-2,-3.664494E-2,-1.1346216E-2,8.469368E-2,-4.2155806E-2,1.0505167E-2,1.4625713E-2,-5.179896E-2,2.947534E-2,-3.4928765E-2,1.02051355E-1,3.839509E-2],"split_indices":[4,6,4,6,0,6,4,0,3,0,6,6,3,0,10,0,0,6,0,0,0,0,0,5,3,13,3,0,0,0,9,0,2,3,0,9,2,2,0,17,21,12,24,0,13,0,0,0,0,0,0,0,0,0,0,0,0,0,0,0,0,0,0,0,0,0,0],"split_type":[0,0,0,0,0,0,0,0,0,0,0,0,0,0,0,0,0,0,0,0,0,0,0,0,0,0,0,0,0,0,0,0,0,0,0,0,0,0,0,0,0,0,0,0,0,0,0,0,0,0,0,0,0,0,0,0,0,0,0,0,0,0,0,0,0,0,0],"sum_hessian":[1.5793661E3,1.0578027E3,5.2156335E2,9.9114996E2,6.66527E1,1.8295015E2,3.3861322E2,6.589031E1,9.2525964E2,5.22604E1,1.3068976E2,7.01392E1,2.68474E2,8.047779E0,9.172119E2,8.065786E1,5.00319E1,4.4153328E1,2.5985874E1,2.4994371E2,1.8530306E1,5.669218E0,2.378561E0,8.937882E2,2.3423693E1,5.5164227E1,2.5493633E1,2.5489943E1,1.8663385E1,1.2557174E0,1.7274588E1,1.046686E0,4.622532E0,8.923924E2,1.3958123E0,4.9925256E0,1.8431168E1,4.7474815E1,7.6894097E0,7.1646037E0,1.8329031E1,4.282789E0,1.4380595E1,1.7956691E0,1.5478919E1,1.0055783E0,3.6169534E0,4.3087173E1,8.4930524E2,2.8377101E0,2.1548152E0,1.1103202E0,1.7320847E1,8.150879E0,3.9323936E1,3.2787492E0,4.4106607E0,4.550231E0,2.6143727E0,1.1725884E1,6.603146E0,1.0104303E0,3.2723591E0,1.1951423E1,2.429173E0,1.2901468E1,2.5774505E0],"tree_param":{"num_deleted":"0","num_feature":"26","num_nodes":"67","size_leaf_vector":"1"}},{"base_weights":[-4.1363165E-3,-7.935128E-1,1.543628E0,-9.9445695E-1,1.02650344E-1,8.8568866E-1,1.8914111E0,1.0208511E-1,-1.2219471E0,1.0247312E-1,4.0082538E-1,1.04596294E-1,1.7314066E0,8.333437E-2,-1.2338349E0,-6.5984327E-1,1.0238631E-1,7.9521316E-1,1.0454762E-1,-6.8501097E-1,7.629394E-2,-1.2452531E0,-7.695121E-1,-8.9111125E-1,-1.5278463E-1,2.188223E-1,1.8079046E0,1.1420324E-2,-9.003645E-1,-1.2473335E0,1.1603495E-3,4.5377022E-1,-1.1189405E0,-1.003538E0,-1.7430823E-1,5.054907E-1,-4.9851766E-1,8.598461E-1,-3.3858278E-1,6.779535E-1,9.918399E-2,-1.0301469E-2,-5.04296E-2,-5.160899E-2,-6.285285E-2,-1.2545309E-2,5.7674106E-2,-1.0897555E-2,-5.8131557E-2,-1.5437131E-2,-5.696054E-2,2.6609162E-2,-3.5678636E-2,7.159825E-2,-1.0180765E-2,1.6022067E-3,-4.9200814E-2,5.257101E-2,-2.0085244E-2,3.0346472E-2,-3.653282E-2,6.670243E-2,-1.5872095E-2],"categories":[],"categories_nodes":[],"categories_segments":[],"categories_sizes":[],"default_left":[0,0,0,0,0,0,0,0,0,0,0,0,0,0,0,0,0,0,0,0,0,0,0,0,0,0,0,0,0,0,0,0,0,0,0,0,0,0,0,0,0,0,0,0,0,0,0,0,0,0,0,0,0,0,0,0,0,0,0,0,0,0,0],"id":6,"left_children":[1,3,5,7,-1,9,11,-1,13,-1,15,-1,17,19,21,23,-1,25,-1,27,-1,29,31,33,35,37,39,-1,41,43,-1,45,47,49,51,53,55,57,59,61,-1,-1,-1,-1,-1,-1,-1,-1,-1,-1,-1,-1,-1,-1,-1,-1,-1,-1,-1,-1,-1,-1,-1],"loss_changes":[1.8974158E3,5.9031805E2,1.1834851E2,6.6648114E2,0E0,1.02590576E2,7.359131E0,0E0,1.3989502E1,0E0,2.2950484E2,0E0,6.436755E1,1.1035916E1,3.7440186E0,9.268803E0,0E0,3.231903E1,0E0,1.4983013E0,0E0,2.309082E0,1.072584E1,4.247162E0,6.2440753E0,1.3459791E1,2.6655197E0,0E0,2.0701075E-1,5.0720215E-1,0E0,3.2590287E0,4.8989677E-1,4.0997505E0,3.6752243E0,6.5740795E0,4.6077704E0,4.633466E0,8.017343E0,3.190792E0,0E0,0E0,0E0,0E0,0E0,0E0,0E0,0E0,0E0,0E0,0E0,0E0,0E0,0E0,0E0,0E0,0E0,0E0,0E0,0E0,0E0,0E0,0E0],"parents":[2147483647,0,0,1,1,2,2,3,3,5,5,6,6,8,8,10,10,12,12,13,13,14,14,15,15,17,17,19,19,21,21,22,22,23,23,24,24,25,25,26,26,28,28,29,29,31,31,32,32,33,33,34,34,35,35,36,36,37,37,38,38,39,39],"right_children":[2,4,6,8,-1,10,12,-1,14,-1,16,-1,18,20,22,24,-1,26,-1,28,-1,30,32,34,36,38,40,-1,42,44,-1,46,48,50,52,54,56,58,60,62,-1,-1,-1,-1,-1,-1,-1,-1,-1,-1,-1,-1,-1,-1,-1,-1,-1,-1,-1,-1,-1,-1,-1],"split_conditions":[5E-1,5.800023E6,4E0,5.788651E6,1.02650344E-1,5.788651E6,5.788651E6,1.0208511E-1,6E0,1.0247312E-1,5.800023E6,1.04596294E-1,5.800023E6,1.996E3,2.22867E2,1.996E3,1.0238631E-1,8.14E0,1.0454762E-1,1.957E3,7.629394E-2,1.97E2,1.3E1,1.59E2,9E0,6.3E1,1.95537E2,1.1420324E-2,4E0,8E0,1.1603495E-3,8.5455E1,4E0,5E0,1.982E3,2.003E3,1.08E2,6.5E1,5E0,4E0,9.918399E-2,-1.0301469E-2,-5.04296E-2,-5.160899E-2,-6.285285E-2,-1.2545309E-2,5.7674106E-2,-1.0897555E-2,-5.8131557E-2,-1.5437131E-2,-5.696054E-2,2.6609162E-2,-3.5678636E-2,7.159825E-2,-1.0180765E-2,1.6022067E-3,-4.9200814E-2,5.257101E-2,-2.0085244E-2,3.0346472E-2,-3.653282E-2,6.670243E-2,-1.5872095E-2],"split_indices":[4,6,4,6,0,6,6,0,3,0,6,0,6,0,10,0,0,4,0,0,0,5,3,13,2,5,10,0,2,3,0,9,2,2,0,0,22,17,2,3,0,0,0,0,0,0,0,0,0,0,0,0,0,0,0,0,0,0,0,0,0,0,0],"split_type":[0,0,0,0,0,0,0,0,0,0,0,0,0,0,0,0,0,0,0,0,0,0,0,0,0,0,0,0,0,0,0,0,0,0,0,0,0,0,0,0,0,0,0,0,0,0,0,0,0,0,0,0,0,0,0,0,0,0,0,0,0,0,0],"sum_hessian":[1.5510046E3,1.0274708E3,5.235338E2,9.60329E2,6.7141785E1,1.8226665E2,3.412672E2,6.63831E1,8.9394586E2,5.2655502E1,1.2961115E2,1.4610129E2,1.9516591E2,8.013824E0,8.8593207E2,7.920157E1,5.0409573E1,5.5046432E1,1.4011948E2,5.571436E0,2.4423883E0,8.630273E2,2.290481E1,5.387289E1,2.532868E1,3.585501E1,1.9191422E1,1.0513874E0,4.5200486E0,8.6163074E2,1.3965461E0,5.022696E0,1.7882114E1,4.6223034E1,7.6498585E0,8.5628805E0,1.6765799E1,1.6424273E1,1.9430738E1,3.2373588E0,1.5954063E1,1.0011058E0,3.5189428E0,4.1889454E1,8.197413E2,2.8220441E0,2.2006521E0,1.1039982E0,1.6778116E1,8.086551E0,3.8136482E1,3.3171651E0,4.332693E0,3.2704792E0,5.292401E0,8.457397E0,8.308402E0,1.4403571E1,2.0207028E0,5.5349145E0,1.38958235E1,1.7461793E0,1.4911793E0],"tree_param":{"num_deleted":"0","num_feature":"26","num_nodes":"63","size_leaf_vector":"1"}},{"base_weights":[-4.331348E-3,-7.7793515E-1,1.4684961E0,-9.7707707E-1,9.744444E-2,8.4758204E-1,1.7936766E0,9.689002E-2,-1.2036467E0,9.727471E-2,3.845866E-1,1.4572448E0,1.8757232E0,8.2021624E-2,-1.2157164E0,-6.395472E-1,9.7196706E-2,1.1499684E0,9.583744E-2,9.717352E-2,1.6247553E0,-6.6847265E-1,7.239002E-2,-1.227354E0,-7.4891955E-1,-8.6889064E-1,-1.4570941E-1,9.578743E-2,5.412335E-2,9.3305685E-2,1.147599E0,1.0217289E-2,-8.9313924E-1,-1.2294796E0,1.1262002E-3,4.3647993E-1,-1.0990386E0,-9.8127455E-1,-1.6764228E-1,1.1931372E-1,-9.7638E-1,4.1219392E-1,-4.9708426E-1,2.8761393E-1,9.300843E-2,-1.0699115E-2,-5.0090816E-2,-5.0511755E-2,-6.1973978E-2,-1.213181E-2,5.4965317E-2,-2.3739533E-2,-5.967943E-2,-5.1860023E-2,2.0988055E-2,2.5369653E-2,-3.4741413E-2,-2.2814779E-2,3.1606276E-2,-9.998815E-3,-5.416596E-2,-1.5128957E-2,4.428829E-2,1.4059396E-2,-4.685161E-2,8.0364875E-2,-2.477941E-2],"categories":[],"categories_nodes":[],"categories_segments":[],"categories_sizes":[],"default_left":[0,0,0,0,0,0,0,0,0,0,0,0,0,0,0,0,0,0,0,0,0,0,0,0,0,0,0,0,0,0,0,0,0,0,0,0,0,0,0,0,0,0,0,0,0,0,0,0,0,0,0,0,0,0,0,0,0,0,0,0,0,0,0,0,0,0,0],"id":7,"left_children":[1,3,5,7,-1,9,11,-1,13,-1,15,17,19,21,23,25,-1,27,-1,-1,29,31,-1,33,35,37,39,-1,41,-1,43,-1,45,47,-1,49,51,53,55,57,59,61,63,65,-1,-1,-1,-1,-1,-1,-1,-1,-1,-1,-1,-1,-1,-1,-1,-1,-1,-1,-1,-1,-1,-1,-1],"loss_changes":[1.7339578E3,5.4371173E2,1.0429541E2,6.168665E2,0E0,9.178035E1,6.73584E0,0E0,1.3507202E1,0E0,2.0769986E2,7.9252014E0,1.47229E0,1.0164861E1,3.7313232E0,8.79628E0,0E0,3.8071552E1,0E0,0E0,5.2268524E0,1.4521735E0,0E0,2.2424316E0,1.0186649E1,4.0594444E0,5.8812976E0,0E0,4.101386E0,0E0,1.4226849E1,0E0,1.7943907E-1,5.7250977E-1,0E0,2.9894407E0,5.157623E-1,4.0387344E0,3.4163084E0,6.4114676E0,3.1828785E-1,4.5040636E0,3.080615E0,1.3301225E1,0E0,0E0,0E0,0E0,0E0,0E0,0E0,0E0,0E0,0E0,0E0,0E0,0E0,0E0,0E0,0E0,0E0,0E0,0E0,0E0,0E0,0E0,0E0],"parents":[2147483647,0,0,1,1,2,2,3,3,5,5,6,6,8,8,10,10,11,11,12,12,13,13,14,14,15,15,17,17,20,20,21,21,23,23,24,24,25,25,26,26,28,28,30,30,32,32,33,33,35,35,36,36,37,37,38,38,39,39,40,40,41,41,42,42,43,43],"right_children":[2,4,6,8,-1,10,12,-1,14,-1,16,18,20,22,24,26,-1,28,-1,-1,30,32,-1,34,36,38,40,-1,42,-1,44,-1,46,48,-1,50,52,54,56,58,60,62,64,66,-1,-1,-1,-1,-1,-1,-1,-1,-1,-1,-1,-1,-1,-1,-1,-1,-1,-1,-1,-1,-1,-1,-1],"split_conditions":[5E-1,5.800023E6,4E0,5.788651E6,9.744444E-2,5.788651E6,4.5E0,9.689002E-2,6E0,9.727471E-2,5.800023E6,5.800023E6,7E0,1.996E3,2.22867E2,1.996E3,9.7196706E-2,5.788651E6,9.583744E-2,9.717352E-2,6.5E1,5E0,7.239002E-2,1.97E2,1.3E1,1.59E2,2.4E1,9.578743E-2,1.9E1,9.3305685E-2,5.800023E6,1.0217289E-2,5E0,8E0,1.1262002E-3,8.5455E1,8.4E1,6E1,1.982E3,2.3E1,4E0,2.5E1,3.37651E1,5.788651E6,9.300843E-2,-1.0699115E-2,-5.0090816E-2,-5.0511755E-2,-6.1973978E-2,-1.213181E-2,5.4965317E-2,-2.3739533E-2,-5.967943E-2,-5.1860023E-2,2.0988055E-2,2.5369653E-2,-3.4741413E-2,-2.2814779E-2,3.1606276E-2,-9.998815E-3,-5.416596E-2,-1.5128957E-2,4.428829E-2,1.4059396E-2,-4.685161E-2,8.0364875E-2,-2.477941E-2],"split_indices":[4,6,4,6,0,6,4,0,3,0,6,6,2,0,10,0,0,6,0,0,5,12,0,5,3,13,12,0,24,0,6,0,2,3,0,9,11,17,0,14,17,14,20,6,0,0,0,0,0,0,0,0,0,0,0,0,0,0,0,0,0,0,0,0,0,0,0],"split_type":[0,0,0,0,0,0,0,0,0,0,0,0,0,0,0,0,0,0,0,0,0,0,0,0,0,0,0,0,0,0,0,0,0,0,0,0,0,0,0,0,0,0,0,0,0,0,0,0,0,0,0,0,0,0,0,0,0,0,0,0,0,0,0,0,0,0,0],"sum_hessian":[1.5198341E3,9.9675793E2,5.230761E2,9.2951636E2,6.7241585E1,1.8102518E2,3.4205093E2,6.64945E1,8.6302185E2,5.2745808E1,1.2827937E2,7.0740616E1,2.7131033E2,7.9726467E0,8.5504926E2,7.778338E1,5.0495987E1,4.449131E1,2.6249306E1,2.0832933E2,6.298099E1,5.474803E0,2.4978437E0,8.3266077E2,2.2388483E1,5.259722E1,2.5186157E1,2.5749369E1,1.8741941E1,3.9891766E1,2.3089226E1,1.1392647E0,4.335538E0,8.312635E2,1.3972582E0,5.048635E0,1.7339848E1,4.4988E1,7.609224E0,1.9743435E1,5.442723E0,1.1514314E1,7.2276278E0,1.1098415E1,1.1990809E1,1.0076144E0,3.3279235E0,4.0711224E1,7.9055225E2,2.806796E0,2.2418392E0,3.072943E0,1.4266905E1,4.351084E1,1.4771562E0,3.3531837E0,4.25604E0,9.354085E0,1.038935E1,1.0063543E0,4.4363685E0,4.732504E0,6.78181E0,2.7405062E0,4.4871216E0,3.7416239E0,7.3567915E0],"tree_param":{"num_deleted":"0","num_feature":"26","num_nodes":"67","size_leaf_vector":"1"}},{"base_weights":[-4.371826E-3,-7.6352507E-1,1.402786E0,-9.609023E-1,9.296661E-2,8.131648E-1,1.7093085E0,1.8483273E0,-1.1864854E0,9.280085E-2,3.6946088E-1,9.461842E-2,1.5633438E0,9.3133E-2,3.0195797E-2,8.027027E-2,-1.198751E0,-6.200297E-1,9.27295E-2,7.100873E-1,9.4568014E-2,-6.5219223E-1,6.884194E-2,-1.2106206E0,-7.2952306E-1,-8.46874E-1,-1.4130357E-1,1.8024325E-1,1.6428207E0,1.3775519E-2,-4.939499E-2,-1.2127953E0,1.0930527E-3,4.2002556E-1,-1.0802591E0,-9.5917535E-1,-1.6132712E-1,4.7980803E-1,-4.749581E-1,9.9934536E-1,-1.986493E-1,6.0307646E-1,9.02937E-2,-3.3233307E-2,3.3944335E-2,-4.945225E-2,-6.1155047E-2,5.2002735E-2,-1.2737001E-2,-2.3082623E-2,-5.879453E-2,-1.3021402E-2,-5.501029E-2,2.41999E-2,-3.383146E-2,6.6669345E-2,-9.647484E-3,-3.1945292E-2,4.374962E-2,-5.976582E-3,6.649552E-2,3.0943388E-2,-3.793001E-2,6.1998334E-2,-1.708371E-2],"categories":[],"categories_nodes":[],"categories_segments":[],"categories_sizes":[],"default_left":[0,0,0,0,0,0,0,0,0,0,0,0,0,0,0,0,0,0,0,0,0,0,0,0,0,0,0,0,0,0,0,0,0,0,0,0,0,0,0,0,0,0,0,0,0,0,0,0,0,0,0,0,0,0,0,0,0,0,0,0,0,0,0,0,0],"id":8,"left_children":[1,3,5,7,-1,9,11,13,15,-1,17,-1,19,-1,-1,21,23,25,-1,27,-1,29,-1,31,33,35,37,39,41,43,-1,45,-1,47,49,51,53,55,57,59,61,63,-1,-1,-1,-1,-1,-1,-1,-1,-1,-1,-1,-1,-1,-1,-1,-1,-1,-1,-1,-1,-1,-1,-1],"loss_changes":[1.5901078E3,5.023352E2,9.2885864E1,5.7245746E2,0E0,8.275587E1,6.187866E0,7.513428E-2,1.3047974E1,0E0,1.8888663E2,0E0,5.3569427E1,0E0,0E0,9.379818E0,3.715454E0,8.2878685E0,0E0,2.7419617E1,0E0,1.4412587E0,0E0,2.1807861E0,9.681649E0,3.8739471E0,5.634944E0,1.1646873E1,2.334362E0,1.8619803E0,0E0,6.405029E-1,0E0,2.8047414E0,5.1115227E-1,4.124443E0,3.1765897E0,5.778905E0,4.426819E0,4.5353813E0,1.2396999E1,2.9741812E0,0E0,0E0,0E0,0E0,0E0,0E0,0E0,0E0,0E0,0E0,0E0,0E0,0E0,0E0,0E0,0E0,0E0,0E0,0E0,0E0,0E0,0E0,0E0],"parents":[2147483647,0,0,1,1,2,2,3,3,5,5,6,6,7,7,8,8,10,10,12,12,15,15,16,16,17,17,19,19,21,21,23,23,24,24,25,25,26,26,27,27,28,28,29,29,31,31,33,33,34,34,35,35,36,36,37,37,38,38,39,39,40,40,41,41],"right_children":[2,4,6,8,-1,10,12,14,16,-1,18,-1,20,-1,-1,22,24,26,-1,28,-1,30,-1,32,34,36,38,40,42,44,-1,46,-1,48,50,52,54,56,58,60,62,64,-1,-1,-1,-1,-1,-1,-1,-1,-1,-1,-1,-1,-1,-1,-1,-1,-1,-1,-1,-1,-1,-1,-1],"split_conditions":[5E-1,5.800023E6,4E0,5.788651E6,9.296661E-2,5.788651E6,5.788651E6,1.8E1,6E0,9.280085E-2,5.800023E6,9.461842E-2,5.800023E6,9.3133E-2,3.0195797E-2,1.996E3,2.22867E2,1.996E3,9.27295E-2,8.14E0,9.4568014E-2,1.961E3,6.884194E-2,1.97E2,1.3E1,1.59E2,9E0,5E0,1.95537E2,2E1,-4.939499E-2,8E0,1.0930527E-3,1E1,8.4E1,5E0,1.982E3,2.003E3,1.02308E2,1.971E3,5.9E1,4E0,9.02937E-2,-3.3233307E-2,3.3944335E-2,-4.945225E-2,-6.1155047E-2,5.2002735E-2,-1.2737001E-2,-2.3082623E-2,-5.879453E-2,-1.3021402E-2,-5.501029E-2,2.41999E-2,-3.383146E-2,6.6669345E-2,-9.647484E-3,-3.1945292E-2,4.374962E-2,-5.976582E-3,6.649552E-2,3.0943388E-2,-3.793001E-2,6.1998334E-2,-1.708371E-2],"split_indices":[4,6,4,6,0,6,6,3,3,0,6,0,6,0,0,0,10,0,0,4,0,0,0,5,3,13,2,2,10,14,0,3,0,24,11,2,0,0,9,0,5,3,0,0,0,0,0,0,0,0,0,0,0,0,0,0,0,0,0,0,0,0,0,0,0],"split_type":[0,0,0,0,0,0,0,0,0,0,0,0,0,0,0,0,0,0,0,0,0,0,0,0,0,0,0,0,0,0,0,0,0,0,0,0,0,0,0,0,0,0,0,0,0,0,0,0,0,0,0,0,0,0,0,0,0,0,0,0,0,0,0,0,0],"sum_hessian":[1.4865161E3,9.658846E2,5.206316E2,8.988754E2,6.70092E1,1.7932945E2,3.413021E2,6.628034E1,8.3259503E2,5.2575794E1,1.2675366E2,1.461036E2,1.951985E2,6.503447E1,1.2458711E0,7.931203E0,8.246639E2,7.642009E1,5.0333576E1,5.508163E1,1.4011687E2,5.385686E0,2.545517E0,8.027765E2,2.1887362E1,5.1328884E1,2.5091206E1,3.5888325E1,1.9193306E1,2.126385E0,3.2593012E0,8.0137854E2,1.3979489E0,5.070636E0,1.6816725E1,4.3761116E1,7.5677667E0,8.615346E0,1.6475859E1,1.0832574E1,2.505575E1,3.2388341E0,1.5954473E1,1.0529749E0,1.07341E0,3.9555218E1,7.618233E2,2.3603754E0,2.7102606E0,3.0318902E0,1.3784836E1,7.827198E0,3.5933918E1,3.3869534E0,4.1808133E0,3.3645341E0,5.250812E0,1.5161283E1,1.3145769E0,2.616113E0,8.216461E0,1.0142576E1,1.4913175E1,1.7479789E0,1.4908552E0],"tree_param":{"num_deleted":"0","num_feature":"26","num_nodes":"65","size_leaf_vector":"1"}},{"base_weights":[-4.36197E-3,-7.5011116E-1,1.3450397E0,-9.457623E-1,8.9076795E-2,7.82892E-1,1.6355195E0,1.7709198E0,-1.1703477E0,8.8912465E-2,3.5643533E-1,9.055714E-2,1.4955909E0,8.921976E-2,2.939101E-2,7.853177E-2,-1.1828061E0,-6.0059977E-1,8.884616E-2,6.8005073E-1,9.051182E-2,-6.3715345E-1,6.56017E-2,-1.194937E0,-7.1064734E-1,-8.1930965E-1,-1.17745735E-1,1.7284854E-1,1.5753846E0,1.3170516E-2,-4.8545666E-2,-1.1971648E0,1.0608904E-3,8.5436153E-1,-9.527935E-1,-9.278149E-1,-1.5533747E-1,6.8050665E-1,-4.2038396E-1,9.488949E-1,-1.9023822E-1,5.843576E-1,8.6537756E-2,-3.269228E-2,3.2859325E-2,-4.8426256E-2,-6.0390253E-2,4.2494177E-3,5.9565544E-2,-5.1852472E-2,1.3509988E-2,-4.9202316E-2,2.1820398E-2,2.309466E-2,-3.2947164E-2,7.461548E-2,-7.7856155E-3,-3.9158802E-2,1.0583146E-2,-5.766297E-3,6.303383E-2,2.9361743E-2,-3.6647942E-2,6.012798E-2,-1.658172E-2],"categories":[],"categories_nodes":[],"categories_segments":[],"categories_sizes":[],"default_left":[0,0,0,0,0,0,0,0,0,0,0,0,0,0,0,0,0,0,0,0,0,0,0,0,0,0,0,0,0,0,0,0,0,0,0,0,0,0,0,0,0,0,0,0,0,0,0,0,0,0,0,0,0,0,0,0,0,0,0,0,0,0,0,0,0],"id":9,"left_children":[1,3,5,7,-1,9,11,13,15,-1,17,-1,19,-1,-1,21,23,25,-1,27,-1,29,-1,31,33,35,37,39,41,43,-1,45,-1,47,49,51,53,55,57,59,61,63,-1,-1,-1,-1,-1,-1,-1,-1,-1,-1,-1,-1,-1,-1,-1,-1,-1,-1,-1,-1,-1,-1,-1],"loss_changes":[1.4624841E3,4.653098E2,8.318945E1,5.3258875E2,0E0,7.498807E1,5.6500854E0,1.5914917E-2,1.2598145E1,0E0,1.7231653E2,0E0,4.8819153E1,0E0,0E0,8.671938E0,3.7092285E0,7.930504E0,0E0,2.511414E1,0E0,1.3781059E0,0E0,2.1235352E0,9.3036785E0,3.6127014E0,6.2926383E0,1.055254E1,2.0824852E0,1.7699606E0,0E0,7.109375E-1,0E0,8.136103E-1,2.3280563E0,3.8523636E0,2.954504E0,5.131532E0,4.4414597E0,4.093796E0,1.13632345E1,2.7957892E0,0E0,0E0,0E0,0E0,0E0,0E0,0E0,0E0,0E0,0E0,0E0,0E0,0E0,0E0,0E0,0E0,0E0,0E0,0E0,0E0,0E0,0E0,0E0],"parents":[2147483647,0,0,1,1,2,2,3,3,5,5,6,6,7,7,8,8,10,10,12,12,15,15,16,16,17,17,19,19,21,21,23,23,24,24,25,25,26,26,27,27,28,28,29,29,31,31,33,33,34,34,35,35,36,36,37,37,38,38,39,39,40,40,41,41],"right_children":[2,4,6,8,-1,10,12,14,16,-1,18,-1,20,-1,-1,22,24,26,-1,28,-1,30,-1,32,34,36,38,40,42,44,-1,46,-1,48,50,52,54,56,58,60,62,64,-1,-1,-1,-1,-1,-1,-1,-1,-1,-1,-1,-1,-1,-1,-1,-1,-1,-1,-1,-1,-1,-1,-1],"split_conditions":[5E-1,5.800023E6,4E0,5.788651E6,8.9076795E-2,5.788651E6,5.788651E6,1.8E1,6E0,8.8912465E-2,5.800023E6,9.055714E-2,5.800023E6,8.921976E-2,2.939101E-2,1.996E3,2.22867E2,1.997E3,8.884616E-2,8.14E0,9.051182E-2,1.961E3,6.56017E-2,1.97E2,1.2E1,1.59E2,7E0,5E0,1.95537E2,2E1,-4.8545666E-2,8E0,1.0608904E-3,5.3E1,7E1,6E1,1.982E3,9E0,2.78736E1,1.971E3,5.9E1,4E0,8.6537756E-2,-3.269228E-2,3.2859325E-2,-4.8426256E-2,-6.0390253E-2,4.2494177E-3,5.9565544E-2,-5.1852472E-2,1.3509988E-2,-4.9202316E-2,2.1820398E-2,2.309466E-2,-3.2947164E-2,7.461548E-2,-7.7856155E-3,-3.9158802E-2,1.0583146E-2,-5.766297E-3,6.303383E-2,2.9361743E-2,-3.6647942E-2,6.012798E-2,-1.658172E-2],"split_indices":[4,6,4,6,0,6,6,3,3,0,6,0,6,0,0,0,10,0,0,4,0,0,0,5,3,13,3,2,10,14,0,3,0,5,14,17,0,2,21,0,5,3,0,0,0,0,0,0,0,0,0,0,0,0,0,0,0,0,0,0,0,0,0,0,0],"split_type":[0,0,0,0,0,0,0,0,0,0,0,0,0,0,0,0,0,0,0,0,0,0,0,0,0,0,0,0,0,0,0,0,0,0,0,0,0,0,0,0,0,0,0,0,0,0,0,0,0,0,0,0,0,0,0,0,0,0,0,0,0,0,0,0,0],"sum_hessian":[1.4513037E3,9.3501184E2,5.162918E2,8.685174E2,6.649447E1,1.7715323E2,3.3913858E2,6.579136E1,8.02726E2,5.2184307E1,1.2496892E2,1.450917E2,1.9404689E2,6.4547935E1,1.2434285E0,7.876276E0,7.9484973E2,7.500946E1,4.9959454E1,5.4903084E1,1.391438E2,5.2902827E0,2.5859933E0,7.734473E2,2.140244E1,5.114597E1,2.3863491E1,3.5809967E1,1.9093115E1,2.1200159E0,3.1702669E0,7.720487E2,1.3986187E0,2.529004E0,1.8873434E1,4.362025E1,7.5257206E0,6.2169085E0,1.7646582E1,1.0899795E1,2.4910173E1,3.2329402E0,1.5860174E1,1.0339141E0,1.0861017E0,3.842368E1,7.33625E2,1.1516387E0,1.3773652E0,1.7799229E1,1.0742067E0,4.2161102E1,1.4591463E0,3.4186156E0,4.107105E0,2.7563992E0,3.460509E0,1.1059417E1,6.587166E0,2.6125038E0,8.287291E0,1.0206647E1,1.47035265E1,1.743443E0,1.4894973E0],"tree_param":{"num_deleted":"0","num_feature":"26","num_nodes":"65","size_leaf_vector":"1"}},{"base_weights":[-4.2483304E-3,-7.3756534E-1,1.293699E0,-9.315361E-1,8.566881E-2,7.554995E-1,1.570494E0,8.51518E-2,-1.1550912E0,8.5503995E-2,3.4452447E-1,1.2704015E0,1.6439525E0,7.664453E-2,-1.1677486E0,-5.8168906E-1,8.544152E-2,9.9759763E-1,8.4096245E-2,1.6863034E0,1.3270458E0,-6.227553E-1,6.262924E-2,-1.1802002E0,-6.902956E-1,-8.0561143E-1,-1.248164E-1,8.40474E-2,3.8788155E-2,8.4644355E-2,7.5740945E-1,6.056948E-1,1.5189772E0,1.04955025E-2,-8.490386E-1,-1.1824853E0,1.0296736E-3,4.07773E-1,-1.0456636E0,-2.0097476E-1,-9.3670523E-1,1.2617016E-1,-9.3822473E-1,3.7775666E-1,-4.9023923E-1,1.0436026E-2,4.8195492E-2,2.5822228E-2,6.8677835E-2,8.223089E-2,6.7458826E-1,-1.0130766E-2,-4.8465215E-2,-4.7430042E-2,-5.9674438E-2,-1.1585228E-2,5.0787058E-2,-7.25696E-3,-5.4711618E-2,-2.7746955E-2,4.5695473E-2,-5.3234633E-2,-7.780868E-3,-2.0961536E-2,2.9709447E-2,-5.260239E-2,-1.05545735E-2,-1.41003225E-2,4.0015142E-2,1.1736732E-2,-4.5607887E-2,6.0524356E-2,-3.458507E-2,3.7238512E-3,6.058113E-2],"categories":[],"categories_nodes":[],"categories_segments":[],"categories_sizes":[],"default_left":[0,0,0,0,0,0,0,0,0,0,0,0,0,0,0,0,0,0,0,0,0,0,0,0,0,0,0,0,0,0,0,0,0,0,0,0,0,0,0,0,0,0,0,0,0,0,0,0,0,0,0,0,0,0,0,0,0,0,0,0,0,0,0,0,0,0,0,0,0,0,0,0,0,0,0],"id":10,"left_children":[1,3,5,7,-1,9,11,-1,13,-1,15,17,19,21,23,25,-1,27,-1,29,31,33,-1,35,37,39,41,-1,43,-1,45,47,49,-1,51,53,-1,55,57,59,61,63,65,67,69,-1,-1,71,-1,-1,73,-1,-1,-1,-1,-1,-1,-1,-1,-1,-1,-1,-1,-1,-1,-1,-1,-1,-1,-1,-1,-1,-1,-1,-1],"loss_changes":[1.3484342E3,4.3196295E2,7.500543E1,4.9641583E2,0E0,6.831253E1,5.336487E0,0E0,1.2163452E1,0E0,1.57718E2,6.2521667E0,1.3482666E0,8.030532E0,3.743042E0,7.5333576E0,0E0,2.937672E1,0E0,1.3653564E-1,4.0906067E0,1.3456302E0,0E0,2.0704346E0,8.969886E0,3.7664719E0,5.3706155E0,0E0,3.7219229E0,0E0,1.8884885E-1,4.0916376E0,1.8527908E0,0E0,1.9776583E-1,7.8344727E-1,0E0,2.5962687E0,5.769119E-1,4.51786E0,3.9060555E0,5.4925604E0,2.898178E-1,3.7342434E0,2.7031374E0,0E0,0E0,6.192512E0,0E0,0E0,1.6217012E0,0E0,0E0,0E0,0E0,0E0,0E0,0E0,0E0,0E0,0E0,0E0,0E0,0E0,0E0,0E0,0E0,0E0,0E0,0E0,0E0,0E0,0E0,0E0,0E0],"parents":[2147483647,0,0,1,1,2,2,3,3,5,5,6,6,8,8,10,10,11,11,12,12,13,13,14,14,15,15,17,17,19,19,20,20,21,21,23,23,24,24,25,25,26,26,28,28,30,30,31,31,32,32,34,34,35,35,37,37,38,38,39,39,40,40,41,41,42,42,43,43,44,44,47,47,50,50],"right_children":[2,4,6,8,-1,10,12,-1,14,-1,16,18,20,22,24,26,-1,28,-1,30,32,34,-1,36,38,40,42,-1,44,-1,46,48,50,-1,52,54,-1,56,58,60,62,64,66,68,70,-1,-1,72,-1,-1,74,-1,-1,-1,-1,-1,-1,-1,-1,-1,-1,-1,-1,-1,-1,-1,-1,-1,-1,-1,-1,-1,-1,-1,-1],"split_conditions":[5E-1,5.800023E6,4E0,5.788651E6,8.566881E-2,5.788651E6,4.5E0,8.51518E-2,6E0,8.5503995E-2,5.800023E6,5.800023E6,6E0,1.996E3,2.22867E2,1.996E3,8.544152E-2,5.788651E6,8.4096245E-2,1.01E2,8.1212E1,5E0,6.262924E-2,1.97E2,1.3E1,5E0,2.4E1,8.40474E-2,1.9E1,8.4644355E-2,1.47E2,5.800023E6,1.34E2,1.04955025E-2,3E0,8E0,1.0296736E-3,8.5455E1,4E0,9.28111E0,1.59E2,2.3E1,2.6E1,2.5E1,3.37651E1,1.0436026E-2,4.8195492E-2,5.60842E6,6.8677835E-2,8.223089E-2,2.018E3,-1.0130766E-2,-4.8465215E-2,-4.7430042E-2,-5.9674438E-2,-1.1585228E-2,5.0787058E-2,-7.25696E-3,-5.4711618E-2,-2.7746955E-2,4.5695473E-2,-5.3234633E-2,-7.780868E-3,-2.0961536E-2,2.9709447E-2,-5.260239E-2,-1.05545735E-2,-1.41003225E-2,4.0015142E-2,1.1736732E-2,-4.5607887E-2,6.0524356E-2,-3.458507E-2,3.7238512E-3,6.058113E-2],"split_indices":[4,6,4,6,0,6,4,0,3,0,6,6,3,0,10,0,0,6,0,5,9,12,0,5,3,2,12,0,24,0,5,6,13,0,1,3,0,9,2,21,13,14,24,14,20,0,0,6,0,0,0,0,0,0,0,0,0,0,0,0,0,0,0,0,0,0,0,0,0,0,0,0,0,0,0],"split_type":[0,0,0,0,0,0,0,0,0,0,0,0,0,0,0,0,0,0,0,0,0,0,0,0,0,0,0,0,0,0,0,0,0,0,0,0,0,0,0,0,0,0,0,0,0,0,0,0,0,0,0,0,0,0,0,0,0,0,0,0,0,0,0,0,0,0,0,0,0,0,0,0,0,0,0],"sum_hessian":[1.4147073E3,9.042525E2,5.104547E2,8.3851154E2,6.574098E1,1.7463135E2,3.3582336E2,6.506849E1,7.7344305E2,5.1605385E1,1.2302597E2,6.963687E1,2.661865E2,7.8156815E0,7.656274E2,7.3619835E1,4.940613E1,4.393559E1,2.5701286E1,2.3099553E2,3.5190964E1,5.1958356E0,2.6198456E0,7.447332E2,2.0894129E1,4.889306E1,2.4726778E1,2.5212967E1,1.872262E1,2.2855316E2,2.4423742E0,8.268938E0,2.6922026E1,1.125743E0,4.0700927E0,7.43334E2,1.3992686E0,5.072598E0,1.582153E1,9.1632E0,3.972986E1,1.9541813E1,5.1849656E0,1.1585365E1,7.1372547E0,1.2176708E0,1.2247034E0,5.30007E0,2.9688683E0,2.2610067E1,4.311958E0,1.0595866E0,3.0105062E0,3.731842E1,7.0601556E2,2.7738614E0,2.2987363E0,1.013747E0,1.4807783E1,7.3362584E0,1.8269417E0,3.382438E1,5.9054813E0,9.072967E0,1.0468845E1,4.0968194E0,1.0881463E0,4.6529136E0,6.932452E0,2.7888613E0,4.3483934E0,1.7400807E0,3.559989E0,2.574148E0,1.7378097E0],"tree_param":{"num_deleted":"0","num_feature":"26","num_nodes":"75","size_leaf_vector":"1"}},{"base_weights":[-4.086457E-3,-7.2590804E-1,1.2471715E0,-9.182403E-1,8.2660586E-2,7.295321E-1,1.5124408E0,1.6426129E0,-1.1406945E0,8.2493834E-2,3.3242756E-1,8.400743E-2,1.3794147E0,8.278925E-2,2.640143E-2,7.4581735E-2,-1.1535763E0,-5.6402445E-1,8.243423E-2,6.111636E-1,8.400327E-2,-6.076772E-1,5.9890892E-2,-1.1663189E0,-6.7246747E-1,-7.7869296E-1,-1.0688992E-1,1.4214522E-1,1.4506677E0,1.17578795E-2,-8.266108E-1,-1.1686653E0,9.993812E-4,3.9268363E-1,-1.0286695E0,-8.515925E-1,1.7482215E-1,6.441415E-1,-3.9851877E-1,6.62631E-1,-3.2888895E-1,5.033791E-1,8.022811E-2,-4.7332734E-2,-9.100272E-3,-4.646031E-2,-5.9003007E-2,4.8442267E-2,-1.2399377E-2,-1.973771E-2,-5.660218E-2,-4.802997E-2,-1.1519594E-2,-4.2012777E-2,7.6487936E-2,-7.9375645E-3,7.074623E-2,-3.7771206E-2,1.0273994E-2,4.22454E-2,-2.41151E-2,2.1139082E-2,-3.277478E-2,5.6032307E-2,-1.8590173E-2],"categories":[],"categories_nodes":[],"categories_segments":[],"categories_sizes":[],"default_left":[0,0,0,0,0,0,0,0,0,0,0,0,0,0,0,0,0,0,0,0,0,0,0,0,0,0,0,0,0,0,0,0,0,0,0,0,0,0,0,0,0,0,0,0,0,0,0,0,0,0,0,0,0,0,0,0,0,0,0,0,0,0,0,0,0],"id":11,"left_children":[1,3,5,7,-1,9,11,13,15,-1,17,-1,19,-1,-1,21,23,25,-1,27,-1,29,-1,31,33,35,37,39,41,-1,43,45,-1,47,49,51,53,55,57,59,61,63,-1,-1,-1,-1,-1,-1,-1,-1,-1,-1,-1,-1,-1,-1,-1,-1,-1,-1,-1,-1,-1,-1,-1],"loss_changes":[1.2458867E3,4.0180435E2,6.819159E1,4.633086E2,0E0,6.2648834E1,5.1054077E0,8.218384E-2,1.1762146E1,0E0,1.4494458E2,0E0,4.3121033E1,0E0,0E0,7.4426947E0,3.7406616E0,7.114605E0,0E0,2.158072E1,0E0,1.3226755E0,0E0,2.0211182E0,8.525694E0,3.6071339E0,5.643967E0,9.193074E0,2.0677834E0,0E0,2.2043109E-1,8.579712E-1,0E0,2.4876425E0,6.2244797E-1,2.9198647E0,7.2863708E0,4.71868E0,4.107703E0,4.1061945E0,5.159005E0,2.692991E0,0E0,0E0,0E0,0E0,0E0,0E0,0E0,0E0,0E0,0E0,0E0,0E0,0E0,0E0,0E0,0E0,0E0,0E0,0E0,0E0,0E0,0E0,0E0],"parents":[2147483647,0,0,1,1,2,2,3,3,5,5,6,6,7,7,8,8,10,10,12,12,15,15,16,16,17,17,19,19,21,21,23,23,24,24,25,25,26,26,27,27,28,28,30,30,31,31,33,33,34,34,35,35,36,36,37,37,38,38,39,39,40,40,41,41],"right_children":[2,4,6,8,-1,10,12,14,16,-1,18,-1,20,-1,-1,22,24,26,-1,28,-1,30,-1,32,34,36,38,40,42,-1,44,46,-1,48,50,52,54,56,58,60,62,64,-1,-1,-1,-1,-1,-1,-1,-1,-1,-1,-1,-1,-1,-1,-1,-1,-1,-1,-1,-1,-1,-1,-1],"split_conditions":[5E-1,5.800023E6,4E0,5.788651E6,8.2660586E-2,5.788651E6,5.788651E6,1.8E1,6E0,8.2493834E-2,5.800023E6,8.400743E-2,5.800023E6,8.278925E-2,2.640143E-2,1.996E3,2.22867E2,1.997E3,8.243423E-2,8.14E0,8.400327E-2,1.957E3,5.9890892E-2,1.97E2,1.3E1,3.5E1,7E0,6.3E1,1.95537E2,1.17578795E-2,7.2E1,8E0,9.993812E-4,1E1,8.4E1,1.59E2,9E1,1.9E1,2.78736E1,6.5E1,5E0,4E0,8.022811E-2,-4.7332734E-2,-9.100272E-3,-4.646031E-2,-5.9003007E-2,4.8442267E-2,-1.2399377E-2,-1.973771E-2,-5.660218E-2,-4.802997E-2,-1.1519594E-2,-4.2012777E-2,7.6487936E-2,-7.9375645E-3,7.074623E-2,-3.7771206E-2,1.0273994E-2,4.22454E-2,-2.41151E-2,2.1139082E-2,-3.277478E-2,5.6032307E-2,-1.8590173E-2],"split_indices":[4,6,4,6,0,6,6,3,3,0,6,0,6,0,0,0,10,0,0,4,0,0,0,5,3,12,3,5,10,0,5,3,0,24,11,13,13,17,21,17,2,3,0,0,0,0,0,0,0,0,0,0,0,0,0,0,0,0,0,0,0,0,0,0,0],"split_type":[0,0,0,0,0,0,0,0,0,0,0,0,0,0,0,0,0,0,0,0,0,0,0,0,0,0,0,0,0,0,0,0,0,0,0,0,0,0,0,0,0,0,0,0,0,0,0,0,0,0,0,0,0,0,0,0,0,0,0,0,0,0,0,0,0],"sum_hessian":[1.3774344E3,8.737869E2,5.036475E2,8.09E2,6.478695E1,1.719192E2,3.317283E2,6.414861E1,7.448514E2,5.0868855E1,1.2105035E2,1.4159175E2,1.9013655E2,6.2919468E1,1.2291406E0,7.7622046E0,7.370892E2,7.2348236E1,4.8702106E1,5.4332874E1,1.3580368E2,5.114579E0,2.6476257E0,7.1668286E2,2.0406326E1,4.875137E1,2.3596863E1,3.5608345E1,1.872453E1,1.0393314E0,4.075248E0,7.1528296E2,1.3998991E0,5.088316E0,1.531801E1,4.538818E1,3.3631902E0,6.26188E0,1.7334984E1,1.6722963E1,1.8885382E1,3.2137008E0,1.5510828E1,3.0404491E0,1.0347984E0,3.624087E1,6.7904205E2,2.4093394E0,2.6789765E0,2.8233342E0,1.2494677E1,3.814774E1,7.2404423E0,2.1398985E0,1.2232916E0,3.4559739E0,2.8059063E0,1.0738722E1,6.5962615E0,1.4652313E1,2.07065E0,5.6311274E0,1.3254255E1,1.7200656E0,1.4936352E0],"tree_param":{"num_deleted":"0","num_feature":"26","num_nodes":"65","size_leaf_vector":"1"}},{"base_weights":[-3.972728E-3,-7.1495545E-1,1.2053564E0,-9.056836E-1,7.9987705E-2,7.0657533E-1,1.4602685E0,1.5892409E0,-1.1270449E0,7.9817824E-2,3.2221326E-1,8.123084E-2,1.3302916E0,8.009998E-2,2.5725547E-2,7.280044E-2,-1.1401529E0,-5.4597867E-1,7.9760365E-2,5.864829E-1,8.122569E-2,-5.9322965E-1,5.7358246E-2,-1.1532109E0,-6.554089E-1,-7.6550114E-1,-1.1399524E-1,1.3539545E-1,1.4024006E0,1.0842061E-2,-8.215595E-1,-1.1556227E0,9.699787E-4,7.920198E-1,-9.0078366E-1,-5.0664455E-1,-1.1133003E0,1.2604669E-1,-9.1236746E-1,8.3056504E-1,-1.9398658E-1,7.595907E-2,1.6621875E-2,-9.629193E-3,-4.708809E-2,-4.551414E-2,-5.837187E-2,3.0672564E-3,5.5966433E-2,-4.941872E-2,1.3735974E-2,-1.2122887E-3,-4.1825514E-2,-5.7986494E-2,-8.7339105E-3,-1.9675901E-2,2.7976064E-2,-5.1375974E-2,-9.850318E-3,4.2894143E-3,6.4456575E-2,2.4950847E-2,-3.468349E-2],"categories":[],"categories_nodes":[],"categories_segments":[],"categories_sizes":[],"default_left":[0,0,0,0,0,0,0,0,0,0,0,0,0,0,0,0,0,0,0,0,0,0,0,0,0,0,0,0,0,0,0,0,0,0,0,0,0,0,0,0,0,0,0,0,0,0,0,0,0,0,0,0,0,0,0,0,0,0,0,0,0,0,0],"id":12,"left_children":[1,3,5,7,-1,9,11,13,15,-1,17,-1,19,-1,-1,21,23,25,-1,27,-1,29,-1,31,33,35,37,39,41,-1,43,45,-1,47,49,51,53,55,57,59,61,-1,-1,-1,-1,-1,-1,-1,-1,-1,-1,-1,-1,-1,-1,-1,-1,-1,-1,-1,-1,-1,-1],"loss_changes":[1.1532991E3,3.743731E2,6.211151E1,4.33148E2,0E0,5.7592484E1,4.8393555E0,5.4229736E-2,1.1375061E1,0E0,1.3338826E2,0E0,4.0302795E1,0E0,0E0,6.905159E0,3.7400513E0,6.743416E0,0E0,2.0052206E1,0E0,1.2933121E0,0E0,1.9749146E0,8.15342E0,3.7200584E0,4.9914393E0,8.524301E0,1.9282532E0,0E0,1.9001651E-1,9.3426514E-1,0E0,7.847853E-1,2.1639395E0,4.612861E0,6.4588356E-1,4.8241005E0,2.9210424E-1,3.9643574E0,9.208464E0,0E0,0E0,0E0,0E0,0E0,0E0,0E0,0E0,0E0,0E0,0E0,0E0,0E0,0E0,0E0,0E0,0E0,0E0,0E0,0E0,0E0,0E0],"parents":[2147483647,0,0,1,1,2,2,3,3,5,5,6,6,7,7,8,8,10,10,12,12,15,15,16,16,17,17,19,19,21,21,23,23,24,24,25,25,26,26,27,27,28,28,30,30,31,31,33,33,34,34,35,35,36,36,37,37,38,38,39,39,40,40],"right_children":[2,4,6,8,-1,10,12,14,16,-1,18,-1,20,-1,-1,22,24,26,-1,28,-1,30,-1,32,34,36,38,40,42,-1,44,46,-1,48,50,52,54,56,58,60,62,-1,-1,-1,-1,-1,-1,-1,-1,-1,-1,-1,-1,-1,-1,-1,-1,-1,-1,-1,-1,-1,-1],"split_conditions":[5E-1,5.800023E6,4E0,5.788651E6,7.9987705E-2,5.788651E6,5.788651E6,1.8E1,6E0,7.9817824E-2,5.800023E6,8.123084E-2,5.800023E6,8.009998E-2,2.5725547E-2,1.996E3,2.22867E2,1.996E3,7.9760365E-2,8.14E0,8.122569E-2,5E0,5.7358246E-2,1.97E2,1.2E1,5E0,2.4E1,5E0,5E0,1.0842061E-2,3E0,8E0,9.699787E-4,5.3E1,7E1,9E0,2.9405E1,2.3E1,2.6E1,3.93083E0,5.9E1,7.595907E-2,1.6621875E-2,-9.629193E-3,-4.708809E-2,-4.551414E-2,-5.837187E-2,3.0672564E-3,5.5966433E-2,-4.941872E-2,1.3735974E-2,-1.2122887E-3,-4.1825514E-2,-5.7986494E-2,-8.7339105E-3,-1.9675901E-2,2.7976064E-2,-5.1375974E-2,-9.850318E-3,4.2894143E-3,6.4456575E-2,2.4950847E-2,-3.468349E-2],"split_indices":[4,6,4,6,0,6,6,3,3,0,6,0,6,0,0,0,10,0,0,4,0,12,0,5,3,15,12,2,3,0,1,3,0,5,14,2,21,14,24,21,5,0,0,0,0,0,0,0,0,0,0,0,0,0,0,0,0,0,0,0,0,0,0],"split_type":[0,0,0,0,0,0,0,0,0,0,0,0,0,0,0,0,0,0,0,0,0,0,0,0,0,0,0,0,0,0,0,0,0,0,0,0,0,0,0,0,0,0,0,0,0,0,0,0,0,0,0,0,0,0,0,0,0,0,0,0,0,0,0],"sum_hessian":[1.3393362E3,8.437133E2,4.9562292E2,7.800474E2,6.366585E1,1.68904E2,3.267189E2,6.3065712E1,7.1698175E2,5.0000893E1,1.1890311E2,1.3920403E2,1.875149E2,6.1840965E1,1.2247462E0,7.698969E0,7.092828E2,7.1030716E1,4.7872395E1,5.3998154E1,1.3351674E2,5.0291085E0,2.66986E0,6.8933466E2,1.9948112E1,4.658526E1,2.4445454E1,3.5524216E1,1.8473938E1,1.1168947E0,3.912214E0,6.8793414E2,1.4005107E0,2.56859E0,1.7379522E1,2.8116043E1,1.8469217E1,1.9442047E1,5.0034065E0,1.093147E1,2.4592745E1,1.6277493E1,2.1964455E0,1.0452034E0,2.8670106E0,3.519214E1,6.52742E2,1.1619992E0,1.4065907E0,1.632247E1,1.0570524E0,1.1854057E1,1.6261986E1,1.7374224E1,1.0949932E0,8.884828E0,1.05572195E1,3.9338145E0,1.069592E0,4.6181E0,6.3133698E0,1.0303835E1,1.4288911E1],"tree_param":{"num_deleted":"0","num_feature":"26","num_nodes":"63","size_leaf_vector":"1"}},{"base_weights":[-3.8888482E-3,-7.0460296E-1,1.1668403E0,-8.937662E-1,7.759883E-2,6.837823E-1,1.4135119E0,1.5414859E0,-1.1140176E0,7.7424906E-2,3.1084102E-1,1.1322994E0,1.4830295E0,7.769701E-2,2.5071371E-2,7.06975E-2,-1.1273662E0,-5.298261E-1,7.736896E-2,1.2006803E0,-3.532893E-2,1.5226545E0,1.189434E0,-5.789922E-1,1.1001439E0,-1.1408026E0,-6.3664895E-1,-1.5103847E-1,-7.74322E-1,7.5932786E-2,9.773901E-1,-3.5556234E-2,4.6093445E-2,8.503015E-1,7.663139E-2,1.4041036E0,6.440662E-1,1.198152E-2,-8.0016243E-1,1.870717E-2,6.525584E-2,-1.1432842E0,9.414432E-4,3.8140962E-1,-9.9755514E-1,-3.95986E-1,9.0121734E-1,-8.4559304E-1,4.086277E-2,1.8409623E-1,7.5829014E-2,-1.4058105E-2,6.15816E-2,4.833608E-1,7.409402E-2,-4.9531884E-2,6.8386495E-2,-4.6026446E-2,-8.611299E-3,-4.458895E-2,-5.7777356E-2,4.222731E-2,-1.7585961E-2,-1.7894043E-2,-5.5304904E-2,-3.4385357E-2,1.7671455E-2,-2.3245672E-2,8.1554905E-2,1.687154E-2,-4.5008786E-2,2.6748696E-2,-1.9670986E-2,4.4587772E-2,-7.428045E-3,5.6071796E-2,-3.6217056E-2],"categories":[],"categories_nodes":[],"categories_segments":[],"categories_sizes":[],"default_left":[0,0,0,0,0,0,0,0,0,0,0,0,0,0,0,0,0,0,0,0,0,0,0,0,0,0,0,0,0,0,0,0,0,0,0,0,0,0,0,0,0,0,0,0,0,0,0,0,0,0,0,0,0,0,0,0,0,0,0,0,0,0,0,0,0,0,0,0,0,0,0,0,0,0,0,0,0],"id":13,"left_children":[1,3,5,7,-1,9,11,13,15,-1,17,19,21,-1,-1,23,25,27,-1,29,31,33,35,37,39,41,43,45,47,-1,49,-1,-1,51,-1,53,55,-1,57,-1,-1,59,-1,61,63,65,67,69,-1,71,-1,-1,-1,73,-1,75,-1,-1,-1,-1,-1,-1,-1,-1,-1,-1,-1,-1,-1,-1,-1,-1,-1,-1,-1,-1,-1],"loss_changes":[1.0688595E3,3.493145E2,5.7164307E1,4.0542767E2,0E0,5.3324707E1,4.6157227E0,3.488159E-2,1.1004639E1,0E0,1.2329789E2,5.4759827E0,1.1550293E0,0E0,0E0,6.414294E0,3.7781982E0,6.4476814E0,0E0,3.0821838E0,3.719371E0,1.7907715E-1,3.180069E0,1.2692049E0,6.03714E-2,1.9315796E0,7.901931E0,7.843845E0,5.5500317E0,0E0,1.708236E1,0E0,0E0,2.7095754E0,0E0,1.0157471E0,5.940964E0,0E0,2.1299887E-1,0E0,0E0,1.012207E0,0E0,2.361804E0,6.726885E-1,5.546225E0,6.5318656E0,2.9829311E0,0E0,3.7693262E0,0E0,0E0,0E0,1.0016687E0,0E0,6.2959757E0,0E0,0E0,0E0,0E0,0E0,0E0,0E0,0E0,0E0,0E0,0E0,0E0,0E0,0E0,0E0,0E0,0E0,0E0,0E0,0E0,0E0],"parents":[2147483647,0,0,1,1,2,2,3,3,5,5,6,6,7,7,8,8,10,10,11,11,12,12,15,15,16,16,17,17,19,19,20,20,21,21,22,22,23,23,24,24,25,25,26,26,27,27,28,28,30,30,33,33,35,35,36,36,38,38,41,41,43,43,44,44,45,45,46,46,47,47,49,49,53,53,55,55],"right_children":[2,4,6,8,-1,10,12,14,16,-1,18,20,22,-1,-1,24,26,28,-1,30,32,34,36,38,40,42,44,46,48,-1,50,-1,-1,52,-1,54,56,-1,58,-1,-1,60,-1,62,64,66,68,70,-1,72,-1,-1,-1,74,-1,76,-1,-1,-1,-1,-1,-1,-1,-1,-1,-1,-1,-1,-1,-1,-1,-1,-1,-1,-1,-1,-1],"split_conditions":[5E-1,5.800023E6,4E0,5.788651E6,7.759883E-2,5.788651E6,4.5E0,1.8E1,6E0,7.7424906E-2,5.800023E6,8.3E1,6E0,7.769701E-2,2.5071371E-2,1.996E3,2.22867E2,9E0,7.736896E-2,5.788651E6,5.800023E6,1E0,6.5E1,1.957E3,1.3E1,1.97E2,1.3E1,6.6E1,1.02308E2,7.5932786E-2,5.800023E6,-3.5556234E-2,4.6093445E-2,4.4E1,7.663139E-2,2.012E3,5.800023E6,1.198152E-2,7.2E1,1.870717E-2,6.525584E-2,8E0,9.414432E-4,2.015E3,8.4E1,1.997E3,6E0,2E0,4.086277E-2,1.9E1,7.5829014E-2,-1.4058105E-2,6.15816E-2,5E0,7.409402E-2,5.753406E6,6.8386495E-2,-4.6026446E-2,-8.611299E-3,-4.458895E-2,-5.7777356E-2,4.222731E-2,-1.7585961E-2,-1.7894043E-2,-5.5304904E-2,-3.4385357E-2,1.7671455E-2,-2.3245672E-2,8.1554905E-2,1.687154E-2,-4.5008786E-2,2.6748696E-2,-1.9670986E-2,4.4587772E-2,-7.428045E-3,5.6071796E-2,-3.6217056E-2],"split_indices":[4,6,4,6,0,6,4,3,3,0,6,5,3,0,0,0,10,2,0,6,6,12,5,0,1,5,3,18,9,0,6,0,0,13,0,0,6,0,5,0,0,3,0,0,11,0,1,17,0,24,0,0,0,15,0,6,0,0,0,0,0,0,0,0,0,0,0,0,0,0,0,0,0,0,0,0,0],"split_type":[0,0,0,0,0,0,0,0,0,0,0,0,0,0,0,0,0,0,0,0,0,0,0,0,0,0,0,0,0,0,0,0,0,0,0,0,0,0,0,0,0,0,0,0,0,0,0,0,0,0,0,0,0,0,0,0,0,0,0,0,0,0,0,0,0,0,0,0,0,0,0,0,0,0,0,0,0],"sum_hessian":[1.3009343E3,8.140818E2,4.8685254E2,7.5167474E2,6.2407024E1,1.6584654E2,3.21006E2,6.184747E1,6.898273E2,4.9024456E1,1.1682209E2,6.7052635E1,2.5395337E2,6.062739E1,1.2200783E0,7.6380677E0,6.821892E2,6.988317E1,4.6938927E1,6.3316277E1,3.7363548E0,2.2006595E2,3.3887417E1,4.9510193E0,2.6870482E0,6.6271844E2,1.9470795E1,2.8047718E1,4.183545E1,2.3726868E1,3.958941E1,2.3407955E0,1.3955594E0,4.4773984E0,2.1558856E2,2.318619E1,1.0701228E1,1.035358E0,3.9156616E0,1.2136633E0,1.4733847E0,6.613173E2,1.4011041E0,5.081077E0,1.4389716E1,2.3257452E1,4.790266E0,4.0490967E1,1.3444831E0,1.656268E1,2.3026731E1,1.1948335E0,3.2825649E0,2.3679898E0,2.08182E1,5.939779E0,4.761449E0,2.894809E0,1.0208526E0,3.4173027E1,6.271443E2,3.0207903E0,2.060287E0,2.7108772E0,1.167884E1,1.68001E1,6.457351E0,1.7944988E0,2.9957674E0,1.5572448E0,3.893372E1,1.0348793E1,6.2138867E0,1.1886292E0,1.1793606E0,1.9295889E0,4.01019E0],"tree_param":{"num_deleted":"0","num_feature":"26","num_nodes":"77","size_leaf_vector":"1"}},{"base_weights":[-3.5045238E-3,-6.9486684E-1,1.1321533E0,-8.824963E-1,7.545259E-2,6.6436213E-1,1.3706441E0,1.4985273E0,-1.1016146E0,7.5273775E-2,3.022579E-1,7.6633446E-2,1.2434711E0,7.553851E-2,2.4437865E-2,7.231043E-2,-1.115243E0,-5.1203096E-1,7.521886E-2,5.2946347E-1,7.664159E-2,-5.653206E-1,1.065431E0,-1.1290278E0,-6.20858E-1,-1.0312E0,-3.2721797E-1,1.10006444E-1,1.3064094E0,1.1148272E-2,-7.957436E-1,1.7682068E-2,6.359451E-2,-1.1315833E0,9.137507E-4,3.6456692E-1,-9.824159E-1,-1.078357E0,-9.550153E-3,1.5112326E-1,-6.462433E-1,7.6397514E-1,-2.0056549E-1,3.920069E-1,7.3233224E-2,-9.162718E-3,-4.580193E-2,-4.3682456E-2,-5.7216167E-2,-1.1679462E-2,4.633991E-2,-1.7386971E-2,-5.464415E-2,-1.5758026E-2,-5.6536626E-2,-7.7873976E-3,6.1742168E-2,-3.6801312E-2,3.9416272E-2,-1.017196E-2,5.295357E-2,2.217107E-2,-3.3629112E-2,5.072679E-2,-2.1415984E-2],"categories":[],"categories_nodes":[],"categories_segments":[],"categories_sizes":[],"default_left":[0,0,0,0,0,0,0,0,0,0,0,0,0,0,0,0,0,0,0,0,0,0,0,0,0,0,0,0,0,0,0,0,0,0,0,0,0,0,0,0,0,0,0,0,0,0,0,0,0,0,0,0,0,0,0,0,0,0,0,0,0,0,0,0,0],"id":14,"left_children":[1,3,5,7,-1,9,11,13,15,-1,17,-1,19,-1,-1,21,23,25,-1,27,-1,29,31,33,35,37,39,41,43,-1,45,-1,-1,47,-1,49,51,53,-1,55,57,59,61,63,-1,-1,-1,-1,-1,-1,-1,-1,-1,-1,-1,-1,-1,-1,-1,-1,-1,-1,-1,-1,-1],"loss_changes":[9.92848E2,3.263657E2,5.247406E1,3.7989197E2,0E0,4.9348442E1,4.6052246E0,2.2140503E-2,1.0711121E1,0E0,1.1388936E2,0E0,3.6860046E1,0E0,0E0,6.0257235E0,3.775879E0,6.3444424E0,0E0,1.7490955E1,0E0,1.2434767E0,9.3268394E-2,1.8907471E0,7.498587E0,4.999752E-1,8.1585045E0,7.5121026E0,2.1578636E0,0E0,1.8287587E-1,0E0,0E0,1.0917358E0,0E0,2.2708945E0,6.668825E-1,3.0939484E-1,0E0,7.490279E0,4.6860704E0,3.6053238E0,8.006294E0,2.554285E0,0E0,0E0,0E0,0E0,0E0,0E0,0E0,0E0,0E0,0E0,0E0,0E0,0E0,0E0,0E0,0E0,0E0,0E0,0E0,0E0,0E0],"parents":[2147483647,0,0,1,1,2,2,3,3,5,5,6,6,7,7,8,8,10,10,12,12,15,15,16,16,17,17,19,19,21,21,22,22,23,23,24,24,25,25,26,26,27,27,28,28,30,30,33,33,35,35,36,36,37,37,39,39,40,40,41,41,42,42,43,43],"right_children":[2,4,6,8,-1,10,12,14,16,-1,18,-1,20,-1,-1,22,24,26,-1,28,-1,30,32,34,36,38,40,42,44,-1,46,-1,-1,48,-1,50,52,54,-1,56,58,60,62,64,-1,-1,-1,-1,-1,-1,-1,-1,-1,-1,-1,-1,-1,-1,-1,-1,-1,-1,-1,-1,-1],"split_conditions":[5E-1,5.800023E6,4E0,5.788651E6,7.545259E-2,5.788651E6,5.788651E6,1.8E1,6E0,7.5273775E-2,5.800023E6,7.6633446E-2,5.800023E6,7.553851E-2,2.4437865E-2,1.996E3,2.22867E2,1.971E3,7.521886E-2,8.14E0,7.664159E-2,5E0,4.6E1,1.97E2,1.3E1,1.1E1,9E0,5E0,1.95537E2,1.1148272E-2,3E0,1.7682068E-2,6.359451E-2,8E0,9.137507E-4,8.5455E1,8.4E1,2.2E1,-9.550153E-3,6.6E1,1.02308E2,1.971E3,5.9E1,4E0,7.3233224E-2,-9.162718E-3,-4.580193E-2,-4.3682456E-2,-5.7216167E-2,-1.1679462E-2,4.633991E-2,-1.7386971E-2,-5.464415E-2,-1.5758026E-2,-5.6536626E-2,-7.7873976E-3,6.1742168E-2,-3.6801312E-2,3.9416272E-2,-1.017196E-2,5.295357E-2,2.217107E-2,-3.3629112E-2,5.072679E-2,-2.1415984E-2],"split_indices":[4,6,4,6,0,6,6,3,3,0,6,0,6,0,0,0,10,0,0,4,0,12,18,5,3,1,2,2,10,0,1,0,0,3,0,9,11,13,0,18,9,0,5,3,0,0,0,0,0,0,0,0,0,0,0,0,0,0,0,0,0,0,0,0,0],"split_type":[0,0,0,0,0,0,0,0,0,0,0,0,0,0,0,0,0,0,0,0,0,0,0,0,0,0,0,0,0,0,0,0,0,0,0,0,0,0,0,0,0,0,0,0,0,0,0,0,0,0,0,0,0,0,0,0,0,0,0,0,0,0,0,0,0],"sum_hessian":[1.2625293E3,7.850171E2,4.7751218E2,7.239809E2,6.103618E1,1.6252026E2,3.149919E2,6.051901E1,6.634619E2,4.7959656E1,1.145606E2,1.3365593E2,1.8133598E2,5.930384E1,1.2151687E0,7.5644855E0,6.5589746E2,6.863967E1,4.5920933E1,5.311143E1,1.2822455E2,4.8690715E0,2.695414E0,6.3685626E2,1.9041172E1,1.6817354E1,5.1822315E1,3.5231995E1,1.7879436E1,1.1086614E0,3.76041E0,1.2160031E0,1.4794109E0,6.354546E2,1.4016798E0,5.1088076E0,1.39323635E1,1.5655231E1,1.162123E0,2.0944613E1,3.0877705E1,1.087426E1,2.4357735E1,3.150842E0,1.4728596E1,1.0315558E0,2.7288542E0,3.3184105E1,6.0227045E2,2.7585385E0,2.3502693E0,2.680389E0,1.1251975E1,1.4560184E0,1.4199213E1,1.6989944E1,3.9546676E0,2.9517292E1,1.3604136E0,2.6143227E0,8.259937E0,1.0327792E1,1.40299425E1,1.6567911E0,1.4940507E0],"tree_param":{"num_deleted":"0","num_feature":"26","num_nodes":"65","size_leaf_vector":"1"}},{"base_weights":[-3.3021546E-3,-6.8565685E-1,1.1001635E0,-8.7178814E-1,7.351516E-2,6.4548284E-1,1.3320631E0,1.4596957E0,-1.0897623E0,7.333079E-2,2.933054E-1,7.46292E-2,1.2065616E0,7.3590346E-2,2.3824064E-2,7.343767E-2,-1.1036875E0,-4.95301E-1,7.327648E-2,5.104198E-1,7.46349E-2,-5.518471E-1,1.0325837E0,-1.1178265E0,-6.05471E-1,-7.7664524E-1,-1.643072E-1,1.0577521E-1,1.269734E0,1.2173984E-2,-7.752406E-1,1.7153881E-2,6.163692E-2,-1.12046E0,8.8687765E-4,3.5142758E-1,-9.6771795E-1,-1.12525605E-1,-8.80615E-1,-6.369435E-1,1.869974E-1,7.2965676E-1,-1.9241318E-1,3.8139454E-1,7.127323E-2,-4.4802397E-2,-8.15715E-3,-4.2792648E-2,-5.668531E-2,4.4172745E-2,-1.2430275E-2,-1.68929E-2,-5.4011595E-2,-4.353824E-2,2.7750382E-2,-4.9011208E-2,8.227884E-3,1.064823E-2,-4.471974E-2,-2.388281E-2,3.2984734E-2,1.3458249E-3,5.863687E-2,2.1106487E-2,-3.2496538E-2,4.953092E-2,-2.076975E-2],"categories":[],"categories_nodes":[],"categories_segments":[],"categories_sizes":[],"default_left":[0,0,0,0,0,0,0,0,0,0,0,0,0,0,0,0,0,0,0,0,0,0,0,0,0,0,0,0,0,0,0,0,0,0,0,0,0,0,0,0,0,0,0,0,0,0,0,0,0,0,0,0,0,0,0,0,0,0,0,0,0,0,0,0,0,0,0],"id":15,"left_children":[1,3,5,7,-1,9,11,13,15,-1,17,-1,19,-1,-1,21,23,25,-1,27,-1,29,31,33,35,37,39,41,43,-1,45,-1,-1,47,-1,49,51,53,55,57,59,61,63,65,-1,-1,-1,-1,-1,-1,-1,-1,-1,-1,-1,-1,-1,-1,-1,-1,-1,-1,-1,-1,-1,-1,-1],"loss_changes":[9.231164E2,3.0527707E2,4.8533447E1,3.5629962E2,0E0,4.588652E1,4.4298096E0,1.4404297E-2,1.042926E1,0E0,1.0549911E2,0E0,3.4852356E1,0E0,0E0,5.664784E0,3.770691E0,6.2516804E0,0E0,1.6335094E1,0E0,1.2182482E0,8.782792E-2,1.852356E0,7.1357975E0,2.4391766E0,5.55573E0,6.848514E0,2.0216904E0,0E0,2.06002E-1,0E0,0E0,1.1726074E0,0E0,2.1724632E0,6.6174793E-1,3.5821798E0,3.455124E0,3.294867E0,6.4590125E0,3.6642938E0,7.356564E0,2.4168854E0,0E0,0E0,0E0,0E0,0E0,0E0,0E0,0E0,0E0,0E0,0E0,0E0,0E0,0E0,0E0,0E0,0E0,0E0,0E0,0E0,0E0,0E0,0E0],"parents":[2147483647,0,0,1,1,2,2,3,3,5,5,6,6,7,7,8,8,10,10,12,12,15,15,16,16,17,17,19,19,21,21,22,22,23,23,24,24,25,25,26,26,27,27,28,28,30,30,33,33,35,35,36,36,37,37,38,38,39,39,40,40,41,41,42,42,43,43],"right_children":[2,4,6,8,-1,10,12,14,16,-1,18,-1,20,-1,-1,22,24,26,-1,28,-1,30,32,34,36,38,40,42,44,-1,46,-1,-1,48,-1,50,52,54,56,58,60,62,64,66,-1,-1,-1,-1,-1,-1,-1,-1,-1,-1,-1,-1,-1,-1,-1,-1,-1,-1,-1,-1,-1,-1,-1],"split_conditions":[5E-1,5.800023E6,4E0,5.788651E6,7.351516E-2,5.788651E6,5.788651E6,1.8E1,6E0,7.333079E-2,5.800023E6,7.46292E-2,5.800023E6,7.3590346E-2,2.3824064E-2,1.996E3,2.22867E2,1.05E2,7.327648E-2,8.14E0,7.46349E-2,1.957E3,1.3E1,1.97E2,1.3E1,5E0,4.32694E0,5E0,1.95537E2,1.2173984E-2,7.2E1,1.7153881E-2,6.163692E-2,8E0,8.8687765E-4,1E1,8.4E1,7E0,2.019E3,2.6E1,1.5E0,3.93083E0,5.9E1,4E0,7.127323E-2,-4.4802397E-2,-8.15715E-3,-4.2792648E-2,-5.668531E-2,4.4172745E-2,-1.2430275E-2,-1.68929E-2,-5.4011595E-2,-4.353824E-2,2.7750382E-2,-4.9011208E-2,8.227884E-3,1.064823E-2,-4.471974E-2,-2.388281E-2,3.2984734E-2,1.3458249E-3,5.863687E-2,2.1106487E-2,-3.2496538E-2,4.953092E-2,-2.076975E-2],"split_indices":[4,6,4,6,0,6,6,3,3,0,6,0,6,0,0,0,10,13,0,4,0,0,1,5,3,2,21,2,10,0,5,0,0,3,0,24,11,1,0,18,4,21,5,3,0,0,0,0,0,0,0,0,0,0,0,0,0,0,0,0,0,0,0,0,0,0,0],"split_type":[0,0,0,0,0,0,0,0,0,0,0,0,0,0,0,0,0,0,0,0,0,0,0,0,0,0,0,0,0,0,0,0,0,0,0,0,0,0,0,0,0,0,0,0,0,0,0,0,0,0,0,0,0,0,0,0,0,0,0,0,0,0,0,0,0,0,0],"sum_hessian":[1.2239896E3,7.565421E2,4.6744748E2,6.969663E2,5.957581E1,1.5916312E2,3.0828436E2,5.910235E1,6.3786395E2,4.682412E1,1.12339005E2,1.3049008E2,1.7779428E2,5.78923E1,1.2100463E0,7.4952826E0,6.3036865E2,6.7503746E1,4.483525E1,5.260218E1,1.2519211E2,4.794384E0,2.7008986E0,6.117638E2,1.8604898E1,3.5760757E1,3.174299E1,3.505852E1,1.754366E1,1.0316353E0,3.7627485E0,1.2182504E0,1.4826483E0,6.103615E2,1.4022382E0,5.1172414E0,1.3487658E1,5.122493E0,3.0638266E1,1.318762E1,1.855537E1,1.0869649E1,2.4188873E1,3.1312146E0,1.4412445E1,2.7550895E0,1.007659E0,3.2225708E1,5.781358E2,2.4619644E0,2.655277E0,2.650851E0,1.0836806E1,2.2557616E0,2.8667312E0,2.802912E1,2.6091466E0,3.1061792E0,1.0081441E1,7.7074847E0,1.0847886E1,4.613398E0,6.2562504E0,1.0355967E1,1.3832907E1,1.6366061E0,1.4946085E0],"tree_param":{"num_deleted":"0","num_feature":"26","num_nodes":"67","size_leaf_vector":"1"}},{"base_weights":[-3.1150624E-3,-6.7691827E-1,1.0704118E0,-8.6158013E-1,7.1758725E-2,6.271663E-1,1.2968079E0,1.4244388E0,-1.0783955E0,7.1568176E-2,2.8412548E-1,7.281742E-2,1.1726104E0,7.1824424E-2,2.3229066E-2,7.4688E-2,-1.0926213E0,-4.7954783E-1,7.151413E-2,4.9273273E-1,7.282089E-2,-5.3888416E-1,1.0015795E0,-1.1071439E0,-5.9032905E-1,-1.0050918E0,-2.984828E-1,1.0224864E-1,1.2359604E0,1.1417284E-2,-7.713939E-1,1.6202748E-2,6.01792E-2,-1.1098598E0,8.6079136E-4,7.208742E-1,-8.400321E-1,-1.0541849E0,-8.460506E-3,1.6062108E-1,-6.135099E-1,6.987625E-1,-1.846139E-1,3.7131295E-1,6.948377E-2,-8.728853E-3,-4.459427E-2,-4.1917767E-2,-5.6182083E-2,1.5620942E-3,5.2078184E-2,1.5007997E-2,-4.6881814E-2,-1.4480061E-2,-5.5444717E-2,-6.822595E-3,5.909404E-2,-3.514381E-2,3.7547197E-2,1.2903733E-3,5.618334E-2,2.0098945E-2,-3.140093E-2,4.83954E-2,-2.0145746E-2],"categories":[],"categories_nodes":[],"categories_segments":[],"categories_sizes":[],"default_left":[0,0,0,0,0,0,0,0,0,0,0,0,0,0,0,0,0,0,0,0,0,0,0,0,0,0,0,0,0,0,0,0,0,0,0,0,0,0,0,0,0,0,0,0,0,0,0,0,0,0,0,0,0,0,0,0,0,0,0,0,0,0,0,0,0],"id":16,"left_children":[1,3,5,7,-1,9,11,13,15,-1,17,-1,19,-1,-1,21,23,25,-1,27,-1,29,31,33,35,37,39,41,43,-1,45,-1,-1,47,-1,49,51,53,-1,55,57,59,61,63,-1,-1,-1,-1,-1,-1,-1,-1,-1,-1,-1,-1,-1,-1,-1,-1,-1,-1,-1,-1,-1],"loss_changes":[8.5914514E2,2.8584448E2,4.514801E1,3.3444803E2,0E0,4.2845913E1,4.2808228E0,1.0597229E-2,1.0154297E1,0E0,9.797565E1,0E0,3.306308E1,0E0,0E0,5.3279953E0,3.7716064E0,6.118841E0,0E0,1.527555E1,0E0,1.1958351E0,1.1681819E-1,1.8161011E0,6.8881993E0,5.135956E-1,7.560347E0,6.268929E0,1.9014492E0,0E0,1.7617726E-1,0E0,0E0,1.2546387E0,0E0,7.6536775E-1,2.1266947E0,3.3709526E-1,0E0,6.7713933E0,4.284027E0,3.3625226E0,6.7602234E0,2.288435E0,0E0,0E0,0E0,0E0,0E0,0E0,0E0,0E0,0E0,0E0,0E0,0E0,0E0,0E0,0E0,0E0,0E0,0E0,0E0,0E0,0E0],"parents":[2147483647,0,0,1,1,2,2,3,3,5,5,6,6,7,7,8,8,10,10,12,12,15,15,16,16,17,17,19,19,21,21,22,22,23,23,24,24,25,25,26,26,27,27,28,28,30,30,33,33,35,35,36,36,37,37,39,39,40,40,41,41,42,42,43,43],"right_children":[2,4,6,8,-1,10,12,14,16,-1,18,-1,20,-1,-1,22,24,26,-1,28,-1,30,32,34,36,38,40,42,44,-1,46,-1,-1,48,-1,50,52,54,-1,56,58,60,62,64,-1,-1,-1,-1,-1,-1,-1,-1,-1,-1,-1,-1,-1,-1,-1,-1,-1,-1,-1,-1,-1],"split_conditions":[5E-1,5.800023E6,4E0,5.788651E6,7.1758725E-2,5.788651E6,5.788651E6,1.8E1,6E0,7.1568176E-2,5.800023E6,7.281742E-2,5.800023E6,7.1824424E-2,2.3229066E-2,1.996E3,2.22867E2,1.971E3,7.151413E-2,8.14E0,7.282089E-2,5E0,4.6E1,1.97E2,1.2E1,1.1E1,9E0,5E0,1.95537E2,1.1417284E-2,3E0,1.6202748E-2,6.01792E-2,8E0,8.6079136E-4,5.3E1,2.23982E2,2.2E1,-8.460506E-3,6.6E1,1.02308E2,3.93083E0,5.9E1,4E0,6.948377E-2,-8.728853E-3,-4.459427E-2,-4.1917767E-2,-5.6182083E-2,1.5620942E-3,5.2078184E-2,1.5007997E-2,-4.6881814E-2,-1.4480061E-2,-5.5444717E-2,-6.822595E-3,5.909404E-2,-3.514381E-2,3.7547197E-2,1.2903733E-3,5.618334E-2,2.0098945E-2,-3.140093E-2,4.83954E-2,-2.0145746E-2],"split_indices":[4,6,4,6,0,6,6,3,3,0,6,0,6,0,0,0,10,0,0,4,0,12,18,5,3,1,2,2,10,0,1,0,0,3,0,5,10,13,0,18,9,21,5,3,0,0,0,0,0,0,0,0,0,0,0,0,0,0,0,0,0,0,0,0,0],"split_type":[0,0,0,0,0,0,0,0,0,0,0,0,0,0,0,0,0,0,0,0,0,0,0,0,0,0,0,0,0,0,0,0,0,0,0,0,0,0,0,0,0,0,0,0,0,0,0,0,0,0,0,0,0,0,0,0,0,0,0,0,0,0,0,0,0],"sum_hessian":[1.185736E3,7.2872095E2,4.57015E2,6.7067535E2,5.804559E1,1.5578477E2,3.0123022E2,5.7616722E1,6.1305865E2,4.5633263E1,1.1015151E2,1.27159225E2,1.7407101E2,5.6411983E1,1.2047381E0,7.4194384E0,6.056392E2,6.645488E1,4.3696636E1,5.207009E1,1.22000916E2,4.7161264E0,2.7033114E0,5.874504E2,1.818883E1,1.5862559E1,5.059232E1,3.488136E1,1.7188732E1,1.1009964E0,3.6151304E0,1.2189934E0,1.4843181E0,5.860476E2,1.4027799E0,2.6078663E0,1.5580962E1,1.473592E1,1.1266394E0,2.078764E1,2.980468E1,1.0860892E1,2.4020468E1,3.110085E0,1.4078647E1,1.0186145E0,2.596516E0,3.1297987E1,5.5474963E2,1.176107E0,1.4317592E0,1.064966E0,1.4515996E1,1.404264E0,1.33316555E1,1.6774511E1,4.0131283E0,2.8427649E1,1.3770324E0,4.6140265E0,6.2468657E0,1.03808155E1,1.3639652E1,1.6152593E0,1.4948256E0],"tree_param":{"num_deleted":"0","num_feature":"26","num_nodes":"65","size_leaf_vector":"1"}},{"base_weights":[-2.8065164E-3,-6.6853684E-1,1.0430862E0,-8.517548E-1,7.016009E-2,6.105255E-1,1.2643981E0,1.3922966E0,-1.0673977E0,6.996282E-2,2.7608234E-1,7.117314E-2,1.1411531E0,7.0217356E-2,2.2652028E-2,7.549124E-2,-1.0819403E0,-4.6373498E-1,6.990872E-2,4.75956E-1,7.117455E-2,-4.0387452E-1,6.0595352E-2,-1.0969303E0,-5.7295907E-1,-6.778667E-1,-4.0930342E-2,9.885241E-2,1.2047237E0,-7.081008E-1,2.5254378E-2,-7.94005E-1,-1.1128038E0,3.4229425E-1,-9.3984026E-1,-7.576864E-1,2.9241046E-1,2.1098754E-1,-8.6682236E-1,6.6963047E-1,-1.7714682E-1,3.6172405E-1,6.78431E-2,3.4908738E-3,-4.8744004E-2,-4.6390254E-2,1.905916E-2,-5.5816364E-2,-2.6919974E-2,3.883022E-2,-1.7612273E-2,-1.51672335E-2,-5.2927792E-2,-4.3836344E-2,-7.1994187E-3,-3.8313385E-2,7.511411E-2,-1.4430403E-2,3.1064143E-2,-8.0062365E-3,-4.9378663E-2,-1.2204571E-2,4.7879558E-2,1.914455E-2,-3.0340288E-2,4.7315095E-2,-1.9542955E-2],"categories":[],"categories_nodes":[],"categories_segments":[],"categories_sizes":[],"default_left":[0,0,0,0,0,0,0,0,0,0,0,0,0,0,0,0,0,0,0,0,0,0,0,0,0,0,0,0,0,0,0,0,1,0,0,0,0,0,0,0,0,0,0,0,0,0,0,0,0,0,0,0,0,0,0,0,0,0,0,0,0,0,0,0,0,0,0],"id":17,"left_children":[1,3,5,7,-1,9,11,13,15,-1,17,-1,19,-1,-1,21,23,25,-1,27,-1,29,-1,31,33,35,37,39,41,43,-1,45,47,49,51,53,55,57,59,61,63,65,-1,-1,-1,-1,-1,-1,-1,-1,-1,-1,-1,-1,-1,-1,-1,-1,-1,-1,-1,-1,-1,-1,-1,-1,-1],"loss_changes":[8.005713E2,2.6787787E2,4.2039276E1,3.1414822E2,0E0,4.0050953E1,4.156952E0,9.82666E-3,9.888367E0,0E0,9.104717E1,0E0,3.1476593E1,0E0,0E0,5.037242E0,3.8171997E0,5.981797E0,0E0,1.4313548E1,0E0,2.188713E0,0E0,1.8328857E0,6.6221356E0,3.6290607E0,5.0472007E0,5.7422357E0,1.7944984E0,1.1840544E0,0E0,5.3254623E0,4.802246E-1,2.1142135E0,7.111454E-1,2.8640366E0,6.3590016E0,4.0164394E0,3.248849E-1,3.350226E0,6.212639E0,2.16821E0,0E0,0E0,0E0,0E0,0E0,0E0,0E0,0E0,0E0,0E0,0E0,0E0,0E0,0E0,0E0,0E0,0E0,0E0,0E0,0E0,0E0,0E0,0E0,0E0,0E0],"parents":[2147483647,0,0,1,1,2,2,3,3,5,5,6,6,7,7,8,8,10,10,12,12,15,15,16,16,17,17,19,19,21,21,23,23,24,24,25,25,26,26,27,27,28,28,29,29,31,31,32,32,33,33,34,34,35,35,36,36,37,37,38,38,39,39,40,40,41,41],"right_children":[2,4,6,8,-1,10,12,14,16,-1,18,-1,20,-1,-1,22,24,26,-1,28,-1,30,-1,32,34,36,38,40,42,44,-1,46,48,50,52,54,56,58,60,62,64,66,-1,-1,-1,-1,-1,-1,-1,-1,-1,-1,-1,-1,-1,-1,-1,-1,-1,-1,-1,-1,-1,-1,-1,-1,-1],"split_conditions":[5E-1,5.800023E6,4E0,5.788651E6,7.016009E-2,5.788651E6,5.788651E6,1.8E1,6E0,6.996282E-2,5.800023E6,7.117314E-2,5.800023E6,7.0217356E-2,2.2652028E-2,2.006E3,2.22867E2,1.997E3,6.990872E-2,8.14E0,7.117455E-2,2.4E1,6.0595352E-2,8E0,1.3E1,3.5E1,2.4E1,5E0,1.95537E2,4E0,2.5254378E-2,1.997E3,6.8E1,2.015E3,8.4E1,1.59E2,9E1,2.3E1,2.549E1,1.971E3,5.9E1,4E0,6.78431E-2,3.4908738E-3,-4.8744004E-2,-4.6390254E-2,1.905916E-2,-5.5816364E-2,-2.6919974E-2,3.883022E-2,-1.7612273E-2,-1.51672335E-2,-5.2927792E-2,-4.3836344E-2,-7.1994187E-3,-3.8313385E-2,7.511411E-2,-1.4430403E-2,3.1064143E-2,-8.0062365E-3,-4.9378663E-2,-1.2204571E-2,4.7879558E-2,1.914455E-2,-3.0340288E-2,4.7315095E-2,-1.9542955E-2],"split_indices":[4,6,4,6,0,6,6,3,3,0,6,0,6,0,0,0,10,0,0,4,0,24,0,3,3,12,12,2,10,3,0,0,7,0,11,13,13,14,20,0,5,3,0,0,0,0,0,0,0,0,0,0,0,0,0,0,0,0,0,0,0,0,0,0,0,0,0],"split_type":[0,0,0,0,0,0,0,0,0,0,0,0,0,0,0,0,0,0,0,0,0,0,0,0,0,0,0,0,0,0,0,0,0,0,0,0,0,0,0,0,0,0,0,0,0,0,0,0,0,0,0,0,0,0,0,0,0,0,0,0,0,0,0,0,0,0,0],"sum_hessian":[1.1477778E3,7.015737E2,4.462041E2,6.451111E2,5.6462677E1,1.5229594E2,2.9390814E2,5.607893E1,5.8903217E2,4.4400536E1,1.0789542E2,1.2370279E2,1.7020537E2,5.487966E1,1.1992689E0,7.3482504E0,5.816839E2,6.537748E1,4.2517933E1,5.1516514E1,1.1868885E2,5.6215577E0,1.7266927E0,5.6392084E2,1.7763062E1,4.299777E1,2.2379711E1,3.46977E1,1.6818811E1,4.377427E0,1.2441304E0,3.0619116E1,5.333017E2,5.102054E0,1.2661007E1,3.993188E1,3.065887E0,1.7719387E1,4.6603255E0,1.0844537E1,2.3853165E1,3.0876603E0,1.3731152E1,1.3063769E0,3.0710504E0,2.7678328E1,2.9407892E0,5.291127E2,4.1890264E0,3.0664082E0,2.0356462E0,2.5491145E0,1.0111892E1,3.308559E1,6.846291E0,1.8306557E0,1.2352313E0,8.123906E0,9.59548E0,1.0195369E0,3.640789E0,2.6351962E0,8.209341E0,1.0402675E1,1.345049E1,1.592929E0,1.4947314E0],"tree_param":{"num_deleted":"0","num_feature":"26","num_nodes":"67","size_leaf_vector":"1"}},{"base_weights":[-2.601001E-3,-6.606046E-1,1.0175233E0,-8.4239364E-1,6.869986E-2,5.9457755E-1,1.2344059E0,1.3628832E0,-1.0568383E0,6.849532E-2,2.6809394E-1,6.967549E-2,1.1117595E0,6.874954E-2,2.2092173E-2,7.706417E-2,-1.0717064E0,-4.48902E-1,6.844091E-2,4.5963338E-1,6.967498E-2,-5.1449394E-1,9.4966376E-1,-1.0871115E0,-5.588839E-1,-9.7832215E-1,-2.7302012E-1,9.5028296E-2,1.1757153E0,3.3080324E-3,-4.309766E-2,1.528198E-2,5.7115722E-2,-7.767466E-1,-1.1036249E0,3.274096E-1,-9.261409E-1,-3.9525622E-1,-5.4387838E-2,1.7027448E-1,-5.8457994E-1,5.479319E-1,-2.2416104E-1,6.47118E-2,1.01011805E-2,-4.5602206E-2,1.81668E-2,-5.5363066E-2,-2.626848E-2,-1.1848785E-2,4.2795073E-2,-1.4730558E-2,-5.2360665E-2,1.9166758E-2,-3.9180405E-2,-5.831734E-3,5.6477793E-2,-3.3674125E-2,3.5910107E-2,3.8689002E-2,-2.8106079E-2,2.1367399E-2,-2.931284E-2],"categories":[],"categories_nodes":[],"categories_segments":[],"categories_sizes":[],"default_left":[0,0,0,0,0,0,0,0,0,0,0,0,0,0,0,0,0,0,0,0,0,0,0,0,0,0,0,0,0,0,0,0,0,0,1,0,0,0,0,0,0,0,0,0,0,0,0,0,0,0,0,0,0,0,0,0,0,0,0,0,0,0,0],"id":18,"left_children":[1,3,5,7,-1,9,11,13,15,-1,17,-1,19,-1,-1,21,23,25,-1,27,-1,29,31,33,35,37,39,41,43,-1,-1,-1,-1,45,47,49,51,53,-1,55,57,59,61,-1,-1,-1,-1,-1,-1,-1,-1,-1,-1,-1,-1,-1,-1,-1,-1,-1,-1,-1,-1],"loss_changes":[7.4667E2,2.5126157E2,3.927536E1,2.9528564E2,0E0,3.7545948E1,4.058716E0,1.1421204E-2,9.63916E0,0E0,8.477529E1,0E0,3.0085464E1,0E0,0E0,4.7572393E0,3.8131104E0,5.8159733E0,0E0,1.345056E1,0E0,1.1822069E0,1.089952E-1,1.9216919E0,6.285064E0,5.848465E-1,7.063797E0,5.255916E0,1.7508698E0,0E0,0E0,0E0,0E0,5.0773315E0,4.958496E-1,2.0291362E0,7.04936E-1,1.5352622E0,0E0,6.0729756E0,3.9395227E0,4.1878815E0,5.3316097E0,0E0,0E0,0E0,0E0,0E0,0E0,0E0,0E0,0E0,0E0,0E0,0E0,0E0,0E0,0E0,0E0,0E0,0E0,0E0,0E0],"parents":[2147483647,0,0,1,1,2,2,3,3,5,5,6,6,7,7,8,8,10,10,12,12,15,15,16,16,17,17,19,19,21,21,22,22,23,23,24,24,25,25,26,26,27,27,28,28,33,33,34,34,35,35,36,36,37,37,39,39,40,40,41,41,42,42],"right_children":[2,4,6,8,-1,10,12,14,16,-1,18,-1,20,-1,-1,22,24,26,-1,28,-1,30,32,34,36,38,40,42,44,-1,-1,-1,-1,46,48,50,52,54,-1,56,58,60,62,-1,-1,-1,-1,-1,-1,-1,-1,-1,-1,-1,-1,-1,-1,-1,-1,-1,-1,-1,-1],"split_conditions":[5E-1,5.800023E6,4E0,5.788651E6,6.869986E-2,5.788651E6,5.788651E6,1.8E1,6E0,6.849532E-2,5.800023E6,6.967549E-2,5.800023E6,6.874954E-2,2.2092173E-2,1.996E3,2.22867E2,1.971E3,6.844091E-2,8.14E0,6.967498E-2,1.961E3,1.3E1,8E0,1.3E1,9E0,9E0,5.9E1,5E0,3.3080324E-3,-4.309766E-2,1.528198E-2,5.7115722E-2,1.997E3,6.8E1,8.5455E1,8.4E1,3.7E1,-5.4387838E-2,6.6E1,1.02308E2,6.5E1,5E0,6.47118E-2,1.01011805E-2,-4.5602206E-2,1.81668E-2,-5.5363066E-2,-2.626848E-2,-1.1848785E-2,4.2795073E-2,-1.4730558E-2,-5.2360665E-2,1.9166758E-2,-3.9180405E-2,-5.831734E-3,5.6477793E-2,-3.3674125E-2,3.5910107E-2,3.8689002E-2,-2.8106079E-2,2.1367399E-2,-2.931284E-2],"split_indices":[4,6,4,6,0,6,6,3,3,0,6,0,6,0,0,0,10,0,0,4,0,0,1,3,3,14,2,5,3,0,0,0,0,0,7,9,11,13,0,18,9,17,2,0,0,0,0,0,0,0,0,0,0,0,0,0,0,0,0,0,0,0,0],"split_type":[0,0,0,0,0,0,0,0,0,0,0,0,0,0,0,0,0,0,0,0,0,0,0,0,0,0,0,0,0,0,0,0,0,0,0,0,0,0,0,0,0,0,0,0,0,0,0,0,0,0,0,0,0,0,0,0,0,0,0,0,0,0,0],"sum_hessian":[1.1103636E3,6.751979E2,4.3516574E2,6.2035583E2,5.484203E1,1.4877635E2,2.8638937E2,5.45036E1,5.6585223E2,4.313767E1,1.0563869E2,1.2015508E2,1.6623428E2,5.330994E1,1.1936619E0,7.2694645E0,5.5858276E2,6.432832E1,4.1310368E1,5.0945435E1,1.1528885E2,4.5769916E0,2.6924732E0,5.4120526E2,1.7377525E1,1.4903894E1,4.9424427E1,3.450788E1,1.6437555E1,2.0165808E0,2.5604107E0,1.2155223E0,1.4769508E0,2.9767864E1,5.1143738E2,5.1229405E0,1.2254584E1,3.0840304E0,1.1819864E1,2.0586685E1,2.883774E1,1.3969567E1,2.0538313E1,1.4360365E1,2.0771906E0,2.6788769E1,2.9790957E0,5.0733215E2,4.105227E0,2.7440856E0,2.3788548E0,2.5237439E0,9.730841E0,1.0306461E0,2.053384E0,1.6523212E1,4.063473E0,2.7447735E1,1.3900055E0,1.1859586E1,2.1099813E0,7.2726407E0,1.3265672E1],"tree_param":{"num_deleted":"0","num_feature":"26","num_nodes":"63","size_leaf_vector":"1"}},{"base_weights":[-2.3827676E-3,-6.530259E-1,9.93491E-1,-8.334125E-1,6.7361556E-2,5.796632E-1,1.2062633E0,1.3358718E0,-1.0466534E0,6.714926E-2,2.6076582E-1,9.3592334E-1,1.2753235E0,6.7404404E-2,2.1548761E-2,7.7685766E-2,-1.0618539E0,-4.3392146E-1,6.709432E-2,7.0606625E-1,6.56246E-2,6.66377E-2,1.0699737E0,-3.8503528E-1,5.7788312E-2,-1.0776798E0,-5.4505616E-1,-7.1787316E-1,-1.146433E-1,6.556129E-2,1.3229329E-3,1.259647E0,7.018829E-1,-6.853687E-1,2.4412652E-2,-7.5978124E-1,-1.0948613E0,6.6849166E-1,-7.965335E-1,-2.2536337E-1,-8.815301E-1,-4.729266E-1,3.2769328E-1,-1.4307892E-1,5.457839E-2,1.1785171E-2,1.2846494E0,7.682082E-2,6.3035525E-2,3.7664291E-3,-4.7739904E-2,-4.4826806E-2,1.7322777E-2,-5.5482645E-2,-4.4142943E-2,-2.9361193E-4,4.9742352E-2,1.5880158E-2,-4.496313E-2,2.8573826E-2,-3.676815E-2,9.791175E-3,-4.727926E-2,-3.2742463E-2,5.9408754E-2,3.68545E-2,-4.769848E-2,4.7092076E-2,-1.3770886E-2,1.8073596E-2,6.5253876E-2,5.279268E-2,-2.2694144E-2],"categories":[],"categories_nodes":[],"categories_segments":[],"categories_sizes":[],"default_left":[0,0,0,0,0,0,0,0,0,0,0,0,0,0,0,0,0,0,0,0,0,0,0,0,0,0,0,0,0,0,0,0,0,0,0,0,1,0,0,0,0,0,0,0,0,0,0,0,0,0,0,0,0,0,0,0,0,0,0,0,0,0,0,0,0,0,0,0,0,0,0,0,0],"id":19,"left_children":[1,3,5,7,-1,9,11,13,15,-1,17,19,21,-1,-1,23,25,27,-1,29,-1,-1,31,33,-1,35,37,39,41,-1,43,45,47,49,-1,51,53,55,57,59,61,63,65,67,-1,-1,69,71,-1,-1,-1,-1,-1,-1,-1,-1,-1,-1,-1,-1,-1,-1,-1,-1,-1,-1,-1,-1,-1,-1,-1,-1,-1],"loss_changes":[6.969309E2,2.3585318E2,3.672519E1,2.7772092E2,0E0,3.5250458E1,4.029785E0,1.4877319E-2,9.38739E0,0E0,7.898816E1,4.3261147E0,1.1696472E0,0E0,0E0,4.532725E0,3.8066406E0,5.7482586E0,0E0,1.6992855E1,0E0,0E0,2.8282585E0,2.0351207E0,0E0,2.0097656E0,6.0216846E0,2.529686E0,5.141324E0,0E0,3.2120333E0,5.633507E-1,7.008093E0,1.145966E0,0E0,4.840719E0,5.610962E-1,8.05006E-1,2.0431213E0,4.3971395E0,1.9147987E0,6.154827E0,8.401017E0,2.8472838E0,0E0,0E0,1.4684677E-1,6.021088E0,0E0,0E0,0E0,0E0,0E0,0E0,0E0,0E0,0E0,0E0,0E0,0E0,0E0,0E0,0E0,0E0,0E0,0E0,0E0,0E0,0E0,0E0,0E0,0E0,0E0],"parents":[2147483647,0,0,1,1,2,2,3,3,5,5,6,6,7,7,8,8,10,10,11,11,12,12,15,15,16,16,17,17,19,19,22,22,23,23,25,25,26,26,27,27,28,28,30,30,31,31,32,32,33,33,35,35,36,36,37,37,38,38,39,39,40,40,41,41,42,42,43,43,46,46,47,47],"right_children":[2,4,6,8,-1,10,12,14,16,-1,18,20,22,-1,-1,24,26,28,-1,30,-1,-1,32,34,-1,36,38,40,42,-1,44,46,48,50,-1,52,54,56,58,60,62,64,66,68,-1,-1,70,72,-1,-1,-1,-1,-1,-1,-1,-1,-1,-1,-1,-1,-1,-1,-1,-1,-1,-1,-1,-1,-1,-1,-1,-1,-1],"split_conditions":[5E-1,5.800023E6,4E0,5.788651E6,6.7361556E-2,5.788651E6,4.5E0,1.8E1,6E0,6.714926E-2,5.800023E6,5.800023E6,7E0,6.7404404E-2,2.1548761E-2,2.006E3,2.22867E2,1.05E2,6.709432E-2,5.788651E6,6.56246E-2,6.66377E-2,6.5E1,2.4E1,5.7788312E-2,8E0,1.2E1,9E0,3.1E1,6.556129E-2,1.7E1,1.967E3,5.800023E6,4E0,2.4412652E-2,1.997E3,4.8E1,4.3E1,2.23982E2,1.8E1,1E0,3.3E1,2.3E1,2E0,5.457839E-2,1.1785171E-2,2E0,5.788651E6,6.3035525E-2,3.7664291E-3,-4.7739904E-2,-4.4826806E-2,1.7322777E-2,-5.5482645E-2,-4.4142943E-2,-2.9361193E-4,4.9742352E-2,1.5880158E-2,-4.496313E-2,2.8573826E-2,-3.676815E-2,9.791175E-3,-4.727926E-2,-3.2742463E-2,5.9408754E-2,3.68545E-2,-4.769848E-2,4.7092076E-2,-1.3770886E-2,1.8073596E-2,6.5253876E-2,5.279268E-2,-2.2694144E-2],"split_indices":[4,6,4,6,0,6,4,3,3,0,6,6,2,0,0,0,10,13,0,6,0,0,5,24,0,3,3,19,14,0,2,0,6,3,0,0,7,7,10,13,15,12,12,2,0,0,24,6,0,0,0,0,0,0,0,0,0,0,0,0,0,0,0,0,0,0,0,0,0,0,0,0,0],"split_type":[0,0,0,0,0,0,0,0,0,0,0,0,0,0,0,0,0,0,0,0,0,0,0,0,0,0,0,0,0,0,0,0,0,0,0,0,0,0,0,0,0,0,0,0,0,0,0,0,0,0,0,0,0,0,0,0,0,0,0,0,0,0,0,0,0,0,0,0,0,0,0,0,0],"sum_hessian":[1.0735782E3,6.495477E2,4.2403058E2,5.963511E2,5.3196613E1,1.4525117E2,2.787794E2,5.290345E1,5.4344763E2,4.1854855E1,1.03396324E2,5.9686268E1,2.1909312E2,5.171551E1,1.1879385E0,7.194267E0,5.3625336E2,6.3312645E1,4.008368E1,3.884831E1,2.083796E1,1.6692012E2,5.2173008E1,5.483538E0,1.7107288E0,5.1926654E2,1.6986803E1,3.284942E1,3.0463226E1,2.0437857E1,1.8410452E1,3.2832603E1,1.9340403E1,4.240403E0,1.243135E0,2.8944572E1,4.90322E2,2.631205E0,1.4355598E1,8.785961E0,2.4063457E1,1.6792501E1,1.3670726E1,1.7024357E1,1.3860948E0,1.0311279E0,3.1801476E1,9.666103E0,9.6743E0,1.2975004E0,2.9429028E0,2.5928776E1,3.0157967E0,4.5438492E2,3.593707E1,1.1783437E0,1.4528615E0,1.0353342E0,1.3320265E1,3.3817155E0,5.4042454E0,1.2349823E0,2.2828474E1,1.5680913E1,1.1115878E0,1.0683145E1,2.9875813E0,1.1858444E0,1.5838512E1,1.0931932E0,3.0708282E1,3.0499938E0,6.6161094E0],"tree_param":{"num_deleted":"0","num_feature":"26","num_nodes":"73","size_leaf_vector":"1"}},{"base_weights":[-1.8810882E-3,-6.456895E-1,9.7085756E-1,-8.246869E-1,6.61312E-2,5.652578E-1,1.1799124E0,1.310984E0,-1.0367054E0,6.591068E-2,2.5352213E-1,6.710068E-2,1.0564474E0,6.6167824E-2,2.1021115E-2,7.902907E-2,-1.0522485E0,-4.194375E-1,6.585499E-2,4.2057917E-1,6.709699E-2,-4.9154657E-1,9.030234E-1,-1.0686007E0,-5.286499E-1,-5.303213E-2,-2.7347746E-1,7.741864E-2,1.1179179E0,3.8051866E-3,-4.2113822E-2,1.4029162E-2,5.469763E-2,-7.4308383E-1,-1.0864787E0,3.198332E-1,-8.9988905E-1,1.24298625E-1,-5.6160706E-1,5.916909E-1,-1.7249519E-1,2.8888106E-1,6.391358E-2,-4.4062465E-2,1.6523862E-2,-5.508984E-2,-4.3452345E-2,3.685665E-2,-1.7614096E-2,-1.3102807E-2,-5.1388647E-2,-6.284047E-3,4.866759E-2,-3.2233372E-2,3.4806512E-2,-2.4512173E-3,5.069397E-2,1.6044643E-2,-2.8049638E-2,4.3846823E-2,-2.094098E-2],"categories":[],"categories_nodes":[],"categories_segments":[],"categories_sizes":[],"default_left":[0,0,0,0,0,0,0,0,0,0,0,0,0,0,0,0,0,0,0,0,0,0,0,0,0,0,0,0,0,0,0,0,0,0,1,0,0,0,0,0,0,0,0,0,0,0,0,0,0,0,0,0,0,0,0,0,0,0,0,0,0],"id":20,"left_children":[1,3,5,7,-1,9,11,13,15,-1,17,-1,19,-1,-1,21,23,25,-1,27,-1,29,31,33,35,-1,37,39,41,-1,-1,-1,-1,43,45,47,49,51,53,55,57,59,-1,-1,-1,-1,-1,-1,-1,-1,-1,-1,-1,-1,-1,-1,-1,-1,-1,-1,-1],"loss_changes":[6.511466E2,2.2152225E2,3.4444885E1,2.6131885E2,0E0,3.317466E1,4.0326233E0,1.978302E-2,9.149902E0,0E0,7.37002E1,0E0,2.835205E1,0E0,0E0,4.2584095E0,3.850647E0,5.6390505E0,0E0,1.2073044E1,0E0,1.1474419E0,1.2944293E-1,2.097351E0,5.830775E0,0E0,6.138715E0,4.617017E0,1.8486919E0,0E0,0E0,0E0,0E0,4.614895E0,6.1102295E-1,1.9688134E0,7.5055885E-1,5.0172553E0,3.6757612E0,3.2184176E0,4.8599186E0,2.030288E0,0E0,0E0,0E0,0E0,0E0,0E0,0E0,0E0,0E0,0E0,0E0,0E0,0E0,0E0,0E0,0E0,0E0,0E0,0E0],"parents":[2147483647,0,0,1,1,2,2,3,3,5,5,6,6,7,7,8,8,10,10,12,12,15,15,16,16,17,17,19,19,21,21,22,22,23,23,24,24,26,26,27,27,28,28,33,33,34,34,35,35,36,36,37,37,38,38,39,39,40,40,41,41],"right_children":[2,4,6,8,-1,10,12,14,16,-1,18,-1,20,-1,-1,22,24,26,-1,28,-1,30,32,34,36,-1,38,40,42,-1,-1,-1,-1,44,46,48,50,52,54,56,58,60,-1,-1,-1,-1,-1,-1,-1,-1,-1,-1,-1,-1,-1,-1,-1,-1,-1,-1,-1],"split_conditions":[5E-1,5.800023E6,4E0,5.788651E6,6.61312E-2,5.788651E6,5.788651E6,1.8E1,6E0,6.591068E-2,5.800023E6,6.710068E-2,5.800023E6,6.6167824E-2,2.1021115E-2,1.996E3,2.22867E2,1.968E3,6.585499E-2,8.14E0,6.709699E-2,1.961E3,4.6E1,8E0,1.3E1,-5.303213E-2,9E0,5E0,1.95537E2,3.8051866E-3,-4.2113822E-2,1.4029162E-2,5.469763E-2,1.997E3,4.8E1,2.015E3,8.4E1,6.6E1,1.02308E2,3.93083E0,5.9E1,4E0,6.391358E-2,-4.4062465E-2,1.6523862E-2,-5.508984E-2,-4.3452345E-2,3.685665E-2,-1.7614096E-2,-1.3102807E-2,-5.1388647E-2,-6.284047E-3,4.866759E-2,-3.2233372E-2,3.4806512E-2,-2.4512173E-3,5.069397E-2,1.6044643E-2,-2.8049638E-2,4.3846823E-2,-2.094098E-2],"split_indices":[4,6,4,6,0,6,6,3,3,0,6,0,6,0,0,0,10,0,0,4,0,0,18,3,3,0,2,2,10,0,0,0,0,0,7,0,11,18,9,21,5,3,0,0,0,0,0,0,0,0,0,0,0,0,0,0,0,0,0,0,0],"split_type":[0,0,0,0,0,0,0,0,0,0,0,0,0,0,0,0,0,0,0,0,0,0,0,0,0,0,0,0,0,0,0,0,0,0,0,0,0,0,0,0,0,0,0,0,0,0,0,0,0,0,0,0,0,0,0,0,0,0,0,0,0],"sum_hessian":[1.037742E3,6.246516E2,4.130903E2,5.7311395E2,5.1537685E1,1.4175903E2,2.7133127E2,5.128949E1,5.2182446E2,4.056093E1,1.01198105E2,1.13043396E2,1.5828787E2,5.0107372E1,1.182118E0,7.1134157E0,5.1471106E2,6.2351776E1,3.884633E1,4.981336E1,1.0847451E2,4.441414E0,2.6720018E0,4.981138E2,1.6597252E1,1.0399578E1,5.1952198E1,3.412933E1,1.5684031E1,1.9952115E0,2.4462023E0,1.2069243E0,1.4650776E0,2.814912E1,4.6996466E2,5.093746E0,1.1503506E1,2.2062504E1,2.9889694E1,1.0714163E1,2.3415167E1,2.9960136E0,1.2688017E1,2.5098166E1,3.0509565E0,4.352352E2,3.472949E1,3.082908E0,2.0108383E0,2.4304705E0,9.073035E0,1.7702486E1,4.3600183E0,2.8495316E1,1.3943784E0,4.606777E0,6.107385E0,1.0391756E1,1.302341E1,1.5057194E0,1.4902942E0],"tree_param":{"num_deleted":"0","num_feature":"26","num_nodes":"61","size_leaf_vector":"1"}},{"base_weights":[-1.6030889E-3,-6.387186E-1,9.4978714E-1,-8.16341E-1,6.4996794E-2,5.517877E-1,1.155697E0,1.2879807E0,-1.0271198E0,6.476758E-2,2.4689636E-1,6.594382E-2,1.032181E0,6.502771E-2,2.0508585E-2,7.940644E-2,-1.0430146E0,-4.050362E-1,6.4710945E-2,4.0692234E-1,6.5938465E-2,-3.6743695E-1,5.527065E-2,-1.0598346E0,-5.156377E-1,-5.2470822E-2,-2.6194125E-1,7.49496E-2,1.0938991E0,-6.637319E-1,2.3615984E-2,-7.2663224E-1,-1.0784389E0,3.0603975E-1,-8.8690466E-1,-6.10695E-2,-8.358564E-1,-5.89849E-1,2.5933027E-1,2.820449E-1,6.269323E-2,4.0069697E-3,-4.6786677E-2,-4.3307744E-2,1.5767096E-2,-5.471592E-2,-4.2766403E-2,4.0081903E-2,-1.2792366E-2,-1.2720502E-2,-5.0870042E-2,-2.4022063E-2,1.3951552E-2,-5.110399E-2,1.7370926E-2,9.76381E-3,-5.120021E-2,4.2536344E-2,-1.0795667E-3,4.546486E-2,-1.8996323E-2],"categories":[],"categories_nodes":[],"categories_segments":[],"categories_sizes":[],"default_left":[0,0,0,0,0,0,0,0,0,0,0,0,0,0,0,0,0,0,0,0,0,0,0,0,0,0,0,0,0,0,0,0,1,0,0,0,1,0,0,0,0,0,0,0,0,0,0,0,0,0,0,0,0,0,0,0,0,0,0,0,0],"id":21,"left_children":[1,3,5,7,-1,9,11,13,15,-1,17,-1,19,-1,-1,21,23,25,-1,27,-1,29,-1,31,33,-1,35,37,39,41,-1,43,45,47,49,51,53,55,57,59,-1,-1,-1,-1,-1,-1,-1,-1,-1,-1,-1,-1,-1,-1,-1,-1,-1,-1,-1,-1,-1],"loss_changes":[6.0880963E2,2.082048E2,3.2375977E1,2.4601736E2,0E0,3.1252934E1,3.971283E0,2.5817871E-2,8.91217E0,0E0,6.880516E1,0E0,2.7271988E1,0E0,0E0,4.091443E0,3.8441162E0,5.478698E0,0E0,1.13713665E1,0E0,1.8935007E0,0E0,2.18396E0,5.5324936E0,0E0,5.988905E0,4.4348917E0,1.7617188E0,1.108854E0,0E0,4.3991756E0,6.6308594E-1,1.906749E0,7.427788E-1,5.8231974E0,3.3308363E0,2.8894958E0,4.6772456E0,1.9944738E0,0E0,0E0,0E0,0E0,0E0,0E0,0E0,0E0,0E0,0E0,0E0,0E0,0E0,0E0,0E0,0E0,0E0,0E0,0E0,0E0,0E0],"parents":[2147483647,0,0,1,1,2,2,3,3,5,5,6,6,7,7,8,8,10,10,12,12,15,15,16,16,17,17,19,19,21,21,23,23,24,24,26,26,27,27,28,28,29,29,31,31,32,32,33,33,34,34,35,35,36,36,37,37,38,38,39,39],"right_children":[2,4,6,8,-1,10,12,14,16,-1,18,-1,20,-1,-1,22,24,26,-1,28,-1,30,-1,32,34,-1,36,38,40,42,-1,44,46,48,50,52,54,56,58,60,-1,-1,-1,-1,-1,-1,-1,-1,-1,-1,-1,-1,-1,-1,-1,-1,-1,-1,-1,-1,-1],"split_conditions":[5E-1,5.800023E6,4E0,5.788651E6,6.4996794E-2,5.788651E6,5.788651E6,1.8E1,6E0,6.476758E-2,5.800023E6,6.594382E-2,5.800023E6,6.502771E-2,2.0508585E-2,2.006E3,2.22867E2,1.968E3,6.4710945E-2,8.14E0,6.5938465E-2,2.4E1,5.527065E-2,8E0,1.3E1,-5.2470822E-2,1.4E1,1.971E3,1.95537E2,4E0,2.3615984E-2,1.997E3,4.8E1,1E1,8.4E1,4.89913E0,5.3E1,7.6E1,5E0,6.2E1,6.269323E-2,4.0069697E-3,-4.6786677E-2,-4.3307744E-2,1.5767096E-2,-5.471592E-2,-4.2766403E-2,4.0081903E-2,-1.2792366E-2,-1.2720502E-2,-5.0870042E-2,-2.4022063E-2,1.3951552E-2,-5.110399E-2,1.7370926E-2,9.76381E-3,-5.120021E-2,4.2536344E-2,-1.0795667E-3,4.546486E-2,-1.8996323E-2],"split_indices":[4,6,4,6,0,6,6,3,3,0,6,0,6,0,0,0,10,0,0,4,0,24,0,3,3,0,2,0,10,3,0,0,7,24,11,21,7,5,2,5,0,0,0,0,0,0,0,0,0,0,0,0,0,0,0,0,0,0,0,0,0],"split_type":[0,0,0,0,0,0,0,0,0,0,0,0,0,0,0,0,0,0,0,0,0,0,0,0,0,0,0,0,0,0,0,0,0,0,0,0,0,0,0,0,0,0,0,0,0,0,0,0,0,0,0,0,0,0,0,0,0,0,0,0,0],"sum_hessian":[1.00239435E3,6.0055237E2,4.01842E2,5.5067737E2,4.987496E1,1.382673E2,2.635747E2,4.9671234E1,5.0100616E2,3.926352E1,9.9003784E1,1.09385506E2,1.541892E2,4.8495014E1,1.1762187E0,7.0383005E0,4.9396786E2,6.1398186E1,3.76056E1,4.922133E1,1.04967865E2,5.350112E0,1.6881886E0,4.7772195E2,1.6245905E1,1.0005965E1,5.139222E1,3.3932827E1,1.5288504E1,4.1096873E0,1.2404246E0,2.7381287E1,4.5034067E2,5.110712E0,1.1135193E1,3.88878E1,1.2504421E1,6.890286E0,2.704254E1,2.9713783E0,1.2317125E1,1.2892401E0,2.8204472E0,2.429665E1,3.0846374E0,4.167728E2,3.3567863E1,2.488821E0,2.6218913E0,2.4089499E0,8.726243E0,1.7229622E1,2.1658178E1,1.09217825E1,1.582639E0,2.6493764E0,4.2409096E0,8.055578E0,1.8986961E1,1.3338581E0,1.6375201E0],"tree_param":{"num_deleted":"0","num_feature":"26","num_nodes":"61","size_leaf_vector":"1"}},{"base_weights":[-1.4233879E-3,7.4886054E-1,-7.852529E-1,1.2000826E-1,1.0163052E0,-9.126845E-1,6.2971026E-2,6.330577E-2,-1.9278713E-1,6.498371E-2,8.348076E-1,1.2384012E0,-1.0580184E0,-6.988003E-1,6.316792E-2,1.1926024E-1,6.498699E-2,1.6920825E-2,6.3454576E-2,-1.075084E0,-5.758421E-1,-7.937089E-1,1.355802E0,-9.630127E-2,1.0707258E0,-8.143285E-1,-1.0951393E0,1.4038703E-1,-8.7412953E-1,-9.97581E-1,-4.5643646E-1,-1.7002091E-3,9.187895E-2,-7.705427E-1,1.1736451E-1,5.9779502E-2,6.6729756E-3,1.4971053E-2,-8.851363E-1,-5.4864507E-2,-8.159226E-3,-4.8727462E-1,4.5775842E-2,-2.4696788E-1,-5.0365604E-2,1.6512861E-2,-5.1542986E-2,-4.602158E-3,-4.8628908E-2,-1.200057E-2,-5.3729184E-2,3.756934E-2,-4.873047E-3,-3.4622174E-2,4.380064E-2,-3.2509523E-4,-4.8593912E-2,-4.3041244E-2,1.0559525E-2,1.7797172E-2,-3.3814866E-2],"categories":[],"categories_nodes":[],"categories_segments":[],"categories_sizes":[],"default_left":[0,0,0,0,0,0,0,0,0,0,0,0,0,0,0,0,0,0,0,0,0,0,0,0,0,0,0,0,0,0,0,0,0,0,0,0,0,0,0,0,0,0,0,0,0,0,0,0,0,0,0,0,0,0,0,0,0,0,0,0,0],"id":22,"left_children":[1,3,5,7,9,11,-1,-1,13,-1,15,17,19,21,-1,23,-1,-1,-1,25,27,29,31,33,35,37,39,41,43,45,47,-1,-1,49,51,-1,-1,53,55,-1,-1,57,-1,59,-1,-1,-1,-1,-1,-1,-1,-1,-1,-1,-1,-1,-1,-1,-1,-1,-1],"loss_changes":[5.7046466E2,8.323248E1,1.2475836E2,5.366745E1,1.6792175E1,1.4110165E2,0E0,0E0,8.778263E1,0E0,7.126518E1,3.6488342E-1,2.8319397E0,1.8268623E1,0E0,1.76705E1,0E0,0E0,0E0,1.220398E0,3.645555E0,5.3827667E0,2.9163141E0,1.0282783E1,1.7016411E0,1.9361458E0,5.6695557E-1,3.2240522E0,7.3513985E-1,2.6415367E0,6.273316E0,0E0,0E0,2.5096226E0,7.508918E0,0E0,0E0,2.7746623E0,2.294361E0,0E0,0E0,1.1752665E0,0E0,1.117734E0,0E0,0E0,0E0,0E0,0E0,0E0,0E0,0E0,0E0,0E0,0E0,0E0,0E0,0E0,0E0,0E0,0E0],"parents":[2147483647,0,0,1,1,2,2,3,3,4,4,5,5,8,8,10,10,11,11,12,12,13,13,15,15,19,19,20,20,21,21,22,22,23,23,24,24,25,25,26,26,27,27,28,28,29,29,30,30,33,33,34,34,37,37,38,38,41,41,43,43],"right_children":[2,4,6,8,10,12,-1,-1,14,-1,16,18,20,22,-1,24,-1,-1,-1,26,28,30,32,34,36,38,40,42,44,46,48,-1,-1,50,52,-1,-1,54,56,-1,-1,58,-1,60,-1,-1,-1,-1,-1,-1,-1,-1,-1,-1,-1,-1,-1,-1,-1,-1,-1],"split_conditions":[1E1,2E0,5.800023E6,5.788651E6,5.788651E6,5.753406E6,6.2971026E-2,6.330577E-2,5.800023E6,6.498371E-2,5.800023E6,2.7E1,2.22867E2,2.008E3,6.316792E-2,8.14E0,6.498699E-2,1.6920825E-2,6.3454576E-2,8.3218E1,1.3E1,9E0,5.8E1,1.971E3,5E0,1E0,1.97E2,8.6519E1,8.4E1,2E0,1.4E1,-1.7002091E-3,9.187895E-2,7.6E1,5E0,5.9779502E-2,6.6729756E-3,1.8E1,6E0,-5.4864507E-2,-8.159226E-3,1.8E1,4.5775842E-2,1.6E1,-5.0365604E-2,1.6512861E-2,-5.1542986E-2,-4.602158E-3,-4.8628908E-2,-1.200057E-2,-5.3729184E-2,3.756934E-2,-4.873047E-3,-3.4622174E-2,4.380064E-2,-3.2509523E-4,-4.8593912E-2,-4.3041244E-2,1.0559525E-2,1.7797172E-2,-3.3814866E-2],"split_indices":[3,4,6,6,6,6,0,0,6,0,6,7,10,0,0,4,0,0,0,9,3,1,13,0,3,15,5,9,11,15,2,0,0,5,2,0,0,19,13,0,0,12,0,3,0,0,0,0,0,0,0,0,0,0,0,0,0,0,0,0,0],"split_type":[0,0,0,0,0,0,0,0,0,0,0,0,0,0,0,0,0,0,0,0,0,0,0,0,0,0,0,0,0,0,0,0,0,0,0,0,0,0,0,0,0,0,0,0,0,0,0,0,0,0,0,0,0,0,0,0,0,0,0,0,0],"sum_hessian":[9.680218E2,4.9461728E2,4.7340448E2,1.4802036E2,3.4659692E2,4.4615228E2,2.7252216E1,3.1082792E1,1.1693757E2,1.3291628E2,2.1368066E2,2.7759743E1,4.1839252E2,8.7166985E1,2.9770582E1,8.465307E1,1.2902759E2,1.3120191E0,2.6447725E1,4.0290308E2,1.5489434E1,8.390485E1,3.2621384E0,6.974958E1,1.4903493E1,3.1746338E1,3.7115674E2,4.709834E0,1.07796E1,5.1074123E1,3.2830723E1,1.0789773E0,2.183161E0,1.6157343E1,5.359223E1,1.2908223E1,1.9952695E0,2.5593915E0,2.9186947E1,3.701251E2,1.0316538E0,2.8076787E0,1.9021553E0,2.3881347E0,8.391465E0,1.0305525E0,5.004357E1,1.9935028E1,1.2895694E1,6.5381365E0,9.619207E0,1.2930959E1,4.0661274E1,1.5125326E0,1.0468589E0,2.7191203E0,2.6467825E1,1.6778733E0,1.1298056E0,1.0643666E0,1.3237681E0],"tree_param":{"num_deleted":"0","num_feature":"26","num_nodes":"61","size_leaf_vector":"1"}},{"base_weights":[-1.2346259E-3,7.3363614E-1,-7.7834034E-1,1.184131E-1,9.947562E-1,-9.051573E-1,6.1995085E-2,6.2326174E-2,-1.8827805E-1,6.400093E-2,8.138839E-1,1.2178698E0,-1.0500857E0,-6.830731E-1,6.2191885E-2,1.14711E-1,6.400276E-2,1.6519127E-2,6.2445093E-2,-1.0676811E0,-5.6302965E-1,-7.7801555E-1,1.2979705E0,-9.2588305E-2,1.0465709E0,-8.0004805E-1,-1.0885388E0,1.3588522E-1,-8.617106E-1,-9.0127736E-1,-2.2572774E-1,-1.6563813E-3,8.7714225E-2,-7.515338E-1,1.1214333E-1,2.4686155E-1,6.0613282E-2,1.6423112E-2,-8.720709E-1,-5.4538846E-2,-7.970748E-3,-4.751943E-1,4.407725E-2,-2.4077949E-1,-4.987384E-2,-4.6276063E-2,1.6974485E-2,-3.6982447E-2,3.543186E-2,-1.15379635E-2,-5.287824E-2,3.569525E-2,-4.6447734E-3,4.3543767E-2,-1.9578924E-2,-3.411916E-2,4.1960534E-2,-3.132672E-4,-4.8037067E-2,-4.2243462E-2,1.0251946E-2,1.802758E-2,-3.3608023E-2],"categories":[],"categories_nodes":[],"categories_segments":[],"categories_sizes":[],"default_left":[0,0,0,0,0,0,0,0,0,0,0,0,0,0,0,0,0,0,0,0,0,0,0,0,0,0,0,0,0,0,0,0,0,0,0,0,0,0,0,0,0,0,0,0,0,0,0,0,0,0,0,0,0,0,0,0,0,0,0,0,0,0,0],"id":23,"left_children":[1,3,5,7,9,11,-1,-1,13,-1,15,17,19,21,-1,23,-1,-1,-1,25,27,29,31,33,35,37,39,41,43,45,47,-1,-1,49,51,53,-1,55,57,-1,-1,59,-1,61,-1,-1,-1,-1,-1,-1,-1,-1,-1,-1,-1,-1,-1,-1,-1,-1,-1,-1,-1],"loss_changes":[5.348954E2,7.7219025E1,1.1764047E2,5.0256084E1,1.6388947E1,1.3324768E2,0E0,0E0,8.2015366E1,0E0,6.8132904E1,3.5497665E-1,2.8442688E0,1.7143051E1,0E0,1.6497402E1,0E0,0E0,0E0,1.2889099E0,3.48495E0,5.4113617E0,2.668488E0,9.577569E0,1.7587223E0,1.8811378E0,5.666809E-1,3.0134604E0,7.24164E-1,2.3324966E0,8.391232E0,0E0,0E0,2.4351158E0,6.7979965E0,1.9032605E0,0E0,2.6166263E0,2.2350292E0,0E0,0E0,1.1235704E0,0E0,1.116692E0,0E0,0E0,0E0,0E0,0E0,0E0,0E0,0E0,0E0,0E0,0E0,0E0,0E0,0E0,0E0,0E0,0E0,0E0,0E0],"parents":[2147483647,0,0,1,1,2,2,3,3,4,4,5,5,8,8,10,10,11,11,12,12,13,13,15,15,19,19,20,20,21,21,22,22,23,23,24,24,25,25,26,26,27,27,28,28,29,29,30,30,33,33,34,34,35,35,37,37,38,38,41,41,43,43],"right_children":[2,4,6,8,10,12,-1,-1,14,-1,16,18,20,22,-1,24,-1,-1,-1,26,28,30,32,34,36,38,40,42,44,46,48,-1,-1,50,52,54,-1,56,58,-1,-1,60,-1,62,-1,-1,-1,-1,-1,-1,-1,-1,-1,-1,-1,-1,-1,-1,-1,-1,-1,-1,-1],"split_conditions":[1E1,2E0,5.800023E6,5.788651E6,5.788651E6,5.753406E6,6.1995085E-2,6.2326174E-2,5.800023E6,6.400093E-2,5.800023E6,2.7E1,2.22867E2,2.008E3,6.2191885E-2,8.14E0,6.400276E-2,1.6519127E-2,6.2445093E-2,8.3218E1,1.3E1,1.996E3,5.8E1,1.971E3,1.95537E2,1E0,1.97E2,8.6519E1,8.4E1,1.03E2,1.2E1,-1.6563813E-3,8.7714225E-2,7.6E1,5E0,6.2E1,6.0613282E-2,1.8E1,6E0,-5.4538846E-2,-7.970748E-3,1.8E1,4.407725E-2,1.4E1,-4.987384E-2,-4.6276063E-2,1.6974485E-2,-3.6982447E-2,3.543186E-2,-1.15379635E-2,-5.287824E-2,3.569525E-2,-4.6447734E-3,4.3543767E-2,-1.9578924E-2,-3.411916E-2,4.1960534E-2,-3.132672E-4,-4.8037067E-2,-4.2243462E-2,1.0251946E-2,1.802758E-2,-3.3608023E-2],"split_indices":[3,4,6,6,6,6,0,0,6,0,6,7,10,0,0,4,0,0,0,9,3,0,13,0,10,15,5,9,11,5,1,0,0,5,2,5,0,19,13,0,0,12,0,17,0,0,0,0,0,0,0,0,0,0,0,0,0,0,0,0,0,0,0],"split_type":[0,0,0,0,0,0,0,0,0,0,0,0,0,0,0,0,0,0,0,0,0,0,0,0,0,0,0,0,0,0,0,0,0,0,0,0,0,0,0,0,0,0,0,0,0,0,0,0,0,0,0,0,0,0,0,0,0,0,0,0,0,0,0],"sum_hessian":[9.34651E2,4.8040833E2,4.5424265E2,1.4357823E2,3.368301E2,4.279065E2,2.6336151E1,3.0035051E1,1.13543175E2,1.2834079E2,2.084893E2,2.6871258E1,4.0103525E2,8.4776115E1,2.876706E1,8.390019E1,1.2458911E2,1.3013189E0,2.5569939E1,3.85902E2,1.513324E1,8.147849E1,3.297626E0,6.936914E1,1.4531051E1,3.0746098E1,3.551559E2,4.694092E0,1.0439147E1,6.609521E1,1.53832855E1,1.0786204E0,2.2190056E0,1.5810602E1,5.3558537E1,2.9213424E0,1.1609709E1,2.554909E0,2.8191189E1,3.541289E2,1.0270108E0,2.7792082E0,1.9148837E0,2.3706024E0,8.068545E0,6.50777E1,1.017509E0,1.0059006E1,5.32428E0,6.5013156E0,9.309286E0,1.2980547E1,4.057799E1,1.2932485E0,1.6280937E0,1.4738176E0,1.0810914E0,2.7184145E0,2.5472775E1,1.643833E0,1.1353751E0,1.0588259E0,1.3117765E0],"tree_param":{"num_deleted":"0","num_feature":"26","num_nodes":"63","size_leaf_vector":"1"}},{"base_weights":[-9.5636875E-4,7.193506E-1,-7.7167493E-1,2.4542847E-1,1.0447587E0,-8.978851E-1,6.108448E-2,6.210777E-2,-5.6552984E-2,6.3032724E-2,8.9648914E-1,